{"learner":{"attributes":{"best_iteration":"76","best_score":"0.27131480354930937","scikit_learn":"{\"_estimator_type\": \"classifier\"}"},"feature_names":[],"feature_types":[],"gradient_booster":{"model":{"cats":{"enc":[],"feature_segments":[],"sorted_idx":[]},"gbtree_model_param":{"num_parallel_tree":"1","num_trees":"97"},"iteration_indptr":[0,1,2,3,4,5,6,7,8,9,10,11,12,13,14,15,16,17,18,19,20,21,22,23,24,25,26,27,28,29,30,31,32,33,34,35,36,37,38,39,40,41,42,43,44,45,46,47,48,49,50,51,52,53,54,55,56,57,58,59,60,61,62,63,64,65,66,67,68,69,70,71,72,73,74,75,76,77,78,79,80,81,82,83,84,85,86,87,88,89,90,91,92,93,94,95,96,97],"tree_info":[0,0,0,0,0,0,0,0,0,0,0,0,0,0,0,0,0,0,0,0,0,0,0,0,0,0,0,0,0,0,0,0,0,0,0,0,0,0,0,0,0,0,0,0,0,0,0,0,0,0,0,0,0,0,0,0,0,0,0,0,0,0,0,0,0,0,0,0,0,0,0,0,0,0,0,0,0,0,0,0,0,0,0,0,0,0,0,0,0,0,0,0,0,0,0,0,0],"trees":[{"base_weights":[-9.13657E-2,-9.790576E-2,1.134486E0,8.245597E-1,9.5047586E-2,-3.704368E-1,1.0000724E0,5.2754587E-1,-1.0982311E0,-1.910871E-2,1.054627E0,3.4557592E-2,9.267046E-4,-7.1428575E-2,9.267046E-4,5.7770604E-1,1.2907932E0,3.919669E-2,-5.555556E-2,2.6545906E-2,7.5492576E-2],"categories":[],"categories_nodes":[],"categories_segments":[],"categories_sizes":[],"default_left":[0,0,0,0,0,0,0,0,0,0,0,0,0,0,0,0,0,0,0,0,0],"id":0,"left_children":[1,-1,3,5,-1,7,9,11,13,-1,15,-1,-1,-1,-1,17,19,-1,-1,-1,-1],"loss_changes":[2.7576974E2,0E0,1.5723457E1,1.1611725E1,0E0,5.542098E0,3.9474792E0,3.2653153E-1,1.6934848E0,0E0,4.377365E0,0E0,0E0,0E0,0E0,6.747981E0,4.1272736E0,0E0,0E0,0E0,0E0],"parents":[2147483647,0,0,2,2,3,3,5,5,6,6,7,7,8,8,10,10,15,15,16,16],"right_children":[2,-1,4,6,-1,8,10,12,14,-1,16,-1,-1,-1,-1,18,20,-1,-1,-1,-1],"split_conditions":[2E0,-9.790576E-2,3E0,3.032E0,9.5047586E-2,1E0,3.705E1,5.336E1,4E0,-1.910871E-2,3E0,3.4557592E-2,9.267046E-4,-7.1428575E-2,9.267046E-4,2E0,2E1,3.919669E-2,-5.555556E-2,2.6545906E-2,7.5492576E-2],"split_indices":[1,0,1,14,0,18,0,0,7,0,4,0,0,0,0,22,11,0,0,0,0],"split_type":[0,0,0,0,0,0,0,0,0,0,0,0,0,0,0,0,0,0,0,0,0],"sum_hessian":[1.18539116E2,4.675E1,7.1789116E1,5.2596935E1,1.9192175E1,6.5935373E0,4.60034E1,3.0748298E0,3.5187075E0,1.5187075E0,4.448469E1,2.0561223E0,1.0187075E0,2.5E0,1.0187075E0,1.5874149E1,2.8610542E1,1.4624149E1,1.25E0,7.168367E0,2.1442175E1],"tree_param":{"num_deleted":"0","num_feature":"24","num_nodes":"21","size_leaf_vector":"1"}},{"base_weights":[-1.693664E-2,-9.3259305E-2,1.1098727E0,7.7441627E-1,9.136113E-2,-1.16720885E-1,1.0435101E0,5.7369906E-1,-6.65047E-1,1.5898292E-1,1.1798725E0,-2.007409E-2,4.804223E-2,1.552111E-1,-7.440864E-2,5.284942E-1,-2.7244542E-2,1.2154326E0,-3.9185747E-4,2.5149921E-2,-1.814451E-2,-1.1056163E-2,4.2819466E-2,6.966841E-2,4.534812E-2],"categories":[],"categories_nodes":[],"categories_segments":[],"categories_sizes":[],"default_left":[0,0,0,0,0,0,0,0,0,0,0,0,0,0,0,0,0,0,0,0,0,0,0,0,0],"id":1,"left_children":[1,-1,3,5,-1,7,9,11,13,15,17,-1,-1,19,-1,21,-1,23,-1,-1,-1,-1,-1,-1,-1],"loss_changes":[2.5236473E2,0E0,1.6702713E1,1.2839771E1,0E0,5.378756E0,4.737873E0,2.794383E0,5.511015E0,2.0072267E0,1.4972801E0,0E0,0E0,1.0514942E0,0E0,1.3795902E0,0E0,6.138687E-1,0E0,0E0,0E0,0E0,0E0,0E0,0E0],"parents":[2147483647,0,0,2,2,3,3,5,5,6,6,7,7,8,8,9,9,10,10,13,13,15,15,17,17],"right_children":[2,-1,4,6,-1,8,10,12,14,16,18,-1,-1,20,-1,22,-1,24,-1,-1,-1,-1,-1,-1,-1],"split_conditions":[2E0,-9.3259305E-2,3E0,1.6E1,9.136113E-2,1E0,3.054E0,5.311E1,5.507E1,3.04E0,6.056E0,-2.007409E-2,4.804223E-2,1E0,-7.440864E-2,2E0,-2.7244542E-2,5.958E1,-3.9185747E-4,2.5149921E-2,-1.814451E-2,-1.1056163E-2,4.2819466E-2,6.966841E-2,4.534812E-2],"split_indices":[1,0,1,11,0,18,14,0,0,14,14,0,0,7,0,17,0,0,0,0,0,0,0,0,0],"split_type":[0,0,0,0,0,0,0,0,0,0,0,0,0,0,0,0,0,0,0,0,0,0,0,0,0],"sum_hessian":[1.191823E2,4.4892338E1,7.4289955E1,5.2035835E1,2.2254122E1,1.2200068E1,3.9835766E1,5.37983E0,6.820238E0,5.6102505E0,3.4225517E1,1.5183153E0,3.8615148E0,3.822496E0,2.9977422E0,3.842319E0,1.7679315E0,3.3207928E1,1.0175905E0,2.3046186E0,1.5178773E0,1.2683376E0,2.5739813E0,1.8829462E1,1.4378465E1],"tree_param":{"num_deleted":"0","num_feature":"24","num_nodes":"25","size_leaf_vector":"1"}},{"base_weights":[8.502611E-2,-8.925275E-2,1.1541944E0,8.5041785E-1,8.786138E-2,-3.4080514E-1,1.023848E0,4.3426526E-1,-6.866407E-2,1.0822495E0,-2.2228574E-2,6.9815195E-1,-1.0091328E-2,1.2947558E0,7.210653E-1,-9.095709E-3,6.030075E-2,9.476413E-3,6.820838E-2,-3.437067E-2,4.632753E-2],"categories":[],"categories_nodes":[],"categories_segments":[],"categories_sizes":[],"default_left":[0,0,0,0,0,0,0,0,0,0,0,0,0,0,0,0,0,0,0,0,0],"id":2,"left_children":[1,-1,3,5,-1,7,9,11,-1,13,-1,15,-1,17,19,-1,-1,-1,-1,-1,-1],"loss_changes":[2.4505424E2,0E0,1.2781616E1,1.1455921E1,0E0,6.664428E0,4.5271606E0,9.954711E-1,0E0,2.5714493E0,0E0,1.9278888E0,0E0,1.850647E0,6.185872E0,0E0,0E0,0E0,0E0,0E0,0E0],"parents":[2147483647,0,0,2,2,3,3,5,5,6,6,7,7,9,9,11,11,13,13,14,14],"right_children":[2,-1,4,6,-1,8,10,12,-1,14,-1,16,-1,18,20,-1,-1,-1,-1,-1,-1],"split_conditions":[2E0,-8.925275E-2,3E0,3.032E0,8.786138E-2,5.507E1,7E0,3.028E0,-6.866407E-2,5.958E1,-2.2228574E-2,2.032E0,-1.0091328E-2,1.3E1,6.03E1,-9.095709E-3,6.030075E-2,9.476413E-3,6.820838E-2,-3.437067E-2,4.632753E-2],"split_indices":[1,0,1,14,0,0,10,14,0,0,0,14,0,11,0,0,0,0,0,0,0],"split_type":[0,0,0,0,0,0,0,0,0,0,0,0,0,0,0,0,0,0,0,0,0],"sum_hessian":[1.2053153E2,4.3600452E1,7.693108E1,5.2762394E1,2.4168688E1,6.582784E0,4.617961E1,4.0910587E0,2.4917257E0,4.4666145E1,1.5134629E0,2.8225436E0,1.2685149E0,2.6493612E1,1.8172535E1,1.2676543E0,1.5548894E0,1.7860024E0,2.470761E1,2.0150769E0,1.6157457E1],"tree_param":{"num_deleted":"0","num_feature":"24","num_nodes":"21","size_leaf_vector":"1"}},{"base_weights":[-7.3645134E-3,-8.58798E-2,1.0188378E0,7.6244867E-1,8.3786204E-2,-3.4144685E-2,9.6660393E-1,8.6749685E-1,-8.206811E-1,1.0692111E0,3.1191638E-1,6.930907E-2,1.506321E-1,-8.057642E-2,-7.0710994E-2,1.1345371E0,-4.304937E-3,1.0024477E0,-5.5217874E-1,-2.0144885E-2,3.4706086E-2,-2.4998115E-2,2.0452878E-2,1.9161675E-2,6.3872375E-2,6.1811306E-2,1.612799E-2,-5.7633813E-2,6.574797E-3],"categories":[],"categories_nodes":[],"categories_segments":[],"categories_sizes":[],"default_left":[0,0,0,0,0,0,0,0,0,0,0,0,0,0,0,0,0,0,0,0,0,0,0,0,0,0,0,0,0],"id":3,"left_children":[1,-1,3,5,-1,7,9,11,13,15,17,-1,19,21,-1,23,-1,25,27,-1,-1,-1,-1,-1,-1,-1,-1,-1,-1],"loss_changes":[2.1693457E2,0E0,1.1733803E1,9.368355E0,0E0,9.70157E0,2.738205E0,2.167944E0,3.0858207E0,3.0500755E0,5.0927877E0,0E0,1.4244428E0,1.0879549E0,0E0,3.4934158E0,0E0,3.2977152E-1,1.8035581E0,0E0,0E0,0E0,0E0,0E0,0E0,0E0,0E0,0E0,0E0],"parents":[2147483647,0,0,2,2,3,3,5,5,6,6,7,7,8,8,9,9,10,10,12,12,13,13,15,15,17,17,18,18],"right_children":[2,-1,4,6,-1,8,10,12,14,16,18,-1,20,22,-1,24,-1,26,28,-1,-1,-1,-1,-1,-1,-1,-1,-1,-1],"split_conditions":[2E0,-8.58798E-2,3E0,1.6E1,8.3786204E-2,1E0,3E0,6E0,5.507E1,1E1,1E0,6.930907E-2,1E0,6E0,-7.0710994E-2,4.762E1,-4.304937E-3,2E0,6E0,-2.0144885E-2,3.4706086E-2,-2.4998115E-2,2.0452878E-2,1.9161675E-2,6.3872375E-2,6.1811306E-2,1.612799E-2,-5.7633813E-2,6.574797E-3],"split_indices":[1,0,1,11,0,18,17,13,0,20,18,0,9,13,0,0,0,12,13,0,0,0,0,0,0,0,0,0,0],"split_type":[0,0,0,0,0,0,0,0,0,0,0,0,0,0,0,0,0,0,0,0,0,0,0,0,0,0,0,0,0],"sum_hessian":[1.2160927E2,4.5352573E1,7.62567E1,5.6402824E1,1.9853874E1,1.1676202E1,4.472662E1,5.3920846E0,6.2841177E0,3.811916E1,6.6074634E0,2.5867677E0,2.805317E0,3.3022187E0,2.981899E0,3.6096115E1,2.0230432E0,3.5835774E0,3.0238857E0,1.517979E0,1.2873378E0,1.7673433E0,1.5348754E0,6.35715E0,2.9738964E1,2.0577457E0,1.5258318E0,1.2446561E0,1.7792296E0],"tree_param":{"num_deleted":"0","num_feature":"24","num_nodes":"29","size_leaf_vector":"1"}},{"base_weights":[-1.9363554E-2,1.0064807E-1,-6.802108E-2,1.5653002E-1,-6.66111E-2,-2.356799E-1,3.6372444E-1,1.448908E-1,-3.9090845E-1,8.7426656E-1,1.8115188E-1,-8.404282E-1,5.2134633E-1,1.3258953E-2,-5.9383833E-1,-1.986144E-2,1.0055927E0,-1.5226643E-1,5.2735776E-1,-8.408654E-3,-5.530694E-2,5.389707E-2,5.7254885E-3,-1.5250805E-2,3.1754687E-2,1.758754E-2,-3.8170986E-2,5.391839E-2,-4.628824E-3,2.3822456E-3,-4.4739734E-2,4.5031685E-2,-5.7633254E-3],"categories":[],"categories_nodes":[],"categories_segments":[],"categories_sizes":[],"default_left":[0,0,0,0,0,0,0,0,0,0,0,0,0,0,0,0,0,0,0,0,0,0,0,0,0,0,0,0,0,0,0,0,0],"id":4,"left_children":[1,3,-1,5,-1,7,9,11,13,15,17,19,21,23,25,-1,27,29,31,-1,-1,-1,-1,-1,-1,-1,-1,-1,-1,-1,-1,-1,-1],"loss_changes":[2.0001654E1,9.354332E0,0E0,9.091998E0,0E0,2.3556383E0,6.6377707E0,4.890853E0,2.297162E0,3.5627584E0,6.4252462E0,4.7513032E-1,1.9831321E0,2.2338452E0,3.2517643E0,0E0,1.4947319E0,4.3142424E0,6.6261806E0,0E0,0E0,0E0,0E0,0E0,0E0,0E0,0E0,0E0,0E0,0E0,0E0,0E0,0E0],"parents":[2147483647,0,0,1,1,3,3,5,5,6,6,7,7,8,8,9,9,10,10,11,11,12,12,13,13,14,14,16,16,17,17,18,18],"right_children":[2,4,-1,6,-1,8,10,12,14,16,18,20,22,24,26,-1,28,30,32,-1,-1,-1,-1,-1,-1,-1,-1,-1,-1,-1,-1,-1,-1],"split_conditions":[7.635E1,1.2E1,-6.802108E-2,2E1,-6.66111E-2,1E0,2E0,5.037E1,5.03E1,1E0,6E0,1.5E1,5.808E1,4.81E1,2E0,-1.986144E-2,1E1,4E0,1E0,-8.408654E-3,-5.530694E-2,5.389707E-2,5.7254885E-3,-1.5250805E-2,3.1754687E-2,1.758754E-2,-3.8170986E-2,5.391839E-2,-4.628824E-3,2.3822456E-3,-4.4739734E-2,4.5031685E-2,-5.7633254E-3],"split_indices":[0,10,0,11,0,22,12,0,0,20,20,11,0,0,20,0,20,10,18,0,0,0,0,0,0,0,0,0,0,0,0,0,0],"split_type":[0,0,0,0,0,0,0,0,0,0,0,0,0,0,0,0,0,0,0,0,0,0,0,0,0,0,0,0,0,0,0,0,0],"sum_hessian":[1.2242746E2,1.132203E2,9.207165E0,1.0982777E2,3.392526E0,3.7916336E1,7.191144E1,1.1004188E1,2.6912148E1,1.794416E1,5.3967274E1,2.701339E0,8.302849E0,9.3081455E0,1.7604002E1,1.490307E0,1.6453854E1,2.7776714E1,2.6190561E1,1.2278256E0,1.4735135E0,2.809538E0,5.4933105E0,6.493866E0,2.8142793E0,2.5136435E0,1.5090359E1,1.5448144E1,1.0057094E0,2.2622011E1,5.1547036E0,1.6313295E1,9.877266E0],"tree_param":{"num_deleted":"0","num_feature":"24","num_nodes":"33","size_leaf_vector":"1"}},{"base_weights":[-2.4875605E-2,-8.2178295E-2,1.0152606E0,7.610147E-1,8.073003E-2,1.0912092E0,2.6571438E-1,-1.33638475E-2,1.1545905E0,-4.2268685E-1,8.7398744E-1,-6.1092054E-4,1.1940755E0,-9.46018E-2,-6.660874E-2,9.752382E-3,6.205627E-2,2.7045852E-2,6.302981E-2,-1.6933883E-2,4.8914585E-2,2.0195777E-2,-2.572684E-2],"categories":[],"categories_nodes":[],"categories_segments":[],"categories_sizes":[],"default_left":[0,0,0,0,0,0,0,0,0,0,0,0,0,0,0,0,0,0,0,0,0,0,0],"id":5,"left_children":[1,-1,3,5,-1,7,9,-1,11,13,15,-1,17,19,-1,21,-1,-1,-1,-1,-1,-1,-1],"loss_changes":[2.0840338E2,0E0,1.0256424E1,8.674547E0,0E0,3.1126518E0,1.01038E1,0E0,1.4567566E0,3.3291059E0,4.0072994E0,0E0,6.3409424E-1,2.841588E0,0E0,1.1966472E0,0E0,0E0,0E0,0E0,0E0,0E0,0E0],"parents":[2147483647,0,0,2,2,3,3,5,5,6,6,8,8,9,9,10,10,12,12,13,13,15,15],"right_children":[2,-1,4,6,-1,8,10,-1,12,14,16,-1,18,20,-1,22,-1,-1,-1,-1,-1,-1,-1],"split_conditions":[2E0,-8.2178295E-2,3E0,1E0,8.073003E-2,3.468E1,3E0,-1.33638475E-2,1.1E1,2E0,2.1E1,-6.1092054E-4,1E0,9E0,-6.660874E-2,5.35E1,6.205627E-2,2.7045852E-2,6.302981E-2,-1.6933883E-2,4.8914585E-2,2.0195777E-2,-2.572684E-2],"split_indices":[1,0,1,18,0,0,4,0,11,10,11,0,20,13,0,0,0,0,0,0,0,0,0],"split_type":[0,0,0,0,0,0,0,0,0,0,0,0,0,0,0,0,0,0,0,0,0,0,0],"sum_hessian":[1.2178902E2,4.741706E1,7.437196E1,5.3813503E1,2.0558455E1,3.156645E1,2.2247055E1,1.2637099E0,3.030274E1,1.0579272E1,1.1667783E1,1.014487E0,2.9288252E1,8.586007E0,1.9932654E0,3.784861E0,7.8829217E0,3.551183E0,2.573707E1,7.552254E0,1.0337532E0,2.291611E0,1.4932503E0],"tree_param":{"num_deleted":"0","num_feature":"24","num_nodes":"23","size_leaf_vector":"1"}},{"base_weights":[7.6831076E-3,-7.941783E-2,9.7842616E-1,6.916019E-1,7.835906E-2,1.0388715E-1,8.928545E-1,-7.706438E-1,3.334834E-1,9.6227866E-1,-2.3545187E-2,-3.4590405E-3,-5.280025E-2,-7.460825E-2,6.7380303E-1,7.197355E-1,6.410823E-2,1.8900381E-2,-3.4776267E-2,7.25666E-4,4.8196465E-2,4.8666816E-2,-7.815291E-3],"categories":[],"categories_nodes":[],"categories_segments":[],"categories_sizes":[],"default_left":[0,0,0,0,0,0,0,0,0,0,0,0,0,0,0,0,0,0,0,0,0,0,0],"id":6,"left_children":[1,-1,3,5,-1,7,9,11,13,15,-1,-1,-1,17,19,21,-1,-1,-1,-1,-1,-1,-1],"loss_changes":[1.8240239E2,0E0,1.1277275E1,5.9407253E0,0E0,3.0968804E0,4.0382957E0,5.761192E-1,1.7030334E0,1.8983002E0,0E0,0E0,0E0,2.0367472E0,1.2462914E0,5.253129E0,0E0,0E0,0E0,0E0,0E0,0E0,0E0],"parents":[2147483647,0,0,2,2,3,3,5,5,6,6,7,7,8,8,9,9,13,13,14,14,15,15],"right_children":[2,-1,4,6,-1,8,10,12,14,16,-1,-1,-1,18,20,22,-1,-1,-1,-1,-1,-1,-1],"split_conditions":[2E0,-7.941783E-2,3E0,4.02E0,7.835906E-2,1E0,7E0,1E0,1E0,5.038E0,-2.3545187E-2,-3.4590405E-3,-5.280025E-2,1.7E1,1.7E1,4.052E0,6.410823E-2,1.8900381E-2,-3.4776267E-2,7.25666E-4,4.8196465E-2,4.8666816E-2,-7.815291E-3],"split_indices":[1,0,1,14,0,22,10,18,8,14,0,0,0,11,11,14,0,0,0,0,0,0,0],"split_type":[0,0,0,0,0,0,0,0,0,0,0,0,0,0,0,0,0,0,0,0,0,0,0],"sum_hessian":[1.1572569E2,4.35262E1,7.219949E1,5.0010513E1,2.218898E1,1.3143621E1,3.686689E1,2.2431097E0,1.0900512E1,3.5361168E1,1.5057218E0,1.0079188E0,1.2351909E0,5.311744E0,5.588767E0,2.196039E1,1.3400781E1,3.298513E0,2.0132315E0,2.028708E0,3.560059E0,1.6944227E1,5.0161614E0],"tree_param":{"num_deleted":"0","num_feature":"24","num_nodes":"23","size_leaf_vector":"1"}},{"base_weights":[-2.8336424E-2,-7.70905E-2,8.643888E-1,6.162376E-1,7.568925E-2,-2.2571124E-1,7.6878786E-1,3.218681E-1,-7.114994E-1,1.0969554E0,4.2149124E-1,-3.213669E-1,5.458904E-2,-8.236417E-2,-5.841702E-2,1.3565772E0,5.7241124E-1,-5.478912E-1,5.9622234E-1,-4.2167594E-4,-2.2237327E-2,-9.191995E-3,3.6346663E-3,-3.8436826E-3,7.323042E-2,5.7720155E-2,-1.674748E-2,-5.3751804E-2,1.2046837E-3,3.6714043E-2,-2.9950202E-2],"categories":[],"categories_nodes":[],"categories_segments":[],"categories_sizes":[],"default_left":[0,0,0,0,0,0,0,0,0,0,0,0,0,0,0,0,0,0,0,0,0,0,0,0,0,0,0,0,0,0,0],"id":7,"left_children":[1,-1,3,5,-1,7,9,11,13,15,17,19,-1,21,-1,23,25,27,29,-1,-1,-1,-1,-1,-1,-1,-1,-1,-1,-1,-1],"loss_changes":[1.5994771E2,0E0,1.1069698E1,7.311617E0,0E0,2.7023458E0,4.925934E0,2.8565178E0,1.4093819E0,2.4488678E0,4.492314E0,1.3250741E-1,0E0,6.496582E-2,0E0,2.4529305E0,5.441063E0,1.3155156E0,3.9572573E0,0E0,0E0,0E0,0E0,0E0,0E0,0E0,0E0,0E0,0E0,0E0,0E0],"parents":[2147483647,0,0,2,2,3,3,5,5,6,6,7,7,8,8,9,9,10,10,11,11,13,13,15,15,16,16,17,17,18,18],"right_children":[2,-1,4,6,-1,8,10,12,14,16,18,20,-1,22,-1,24,26,28,30,-1,-1,-1,-1,-1,-1,-1,-1,-1,-1,-1,-1],"split_conditions":[2E0,-7.70905E-2,3E0,3.032E0,7.568925E-2,1E0,1E0,3E0,5.507E1,5.958E1,1.6E1,1.4E1,5.458904E-2,1E0,-5.841702E-2,4.319E1,1E0,3E0,7E0,-4.2167594E-4,-2.2237327E-2,-9.191995E-3,3.6346663E-3,-3.8436826E-3,7.323042E-2,5.7720155E-2,-1.674748E-2,-5.3751804E-2,1.2046837E-3,3.6714043E-2,-2.9950202E-2],"split_indices":[1,0,1,14,0,18,10,17,0,0,11,11,0,7,0,0,9,19,10,0,0,0,0,0,0,0,0,0,0,0,0],"split_type":[0,0,0,0,0,0,0,0,0,0,0,0,0,0,0,0,0,0,0,0,0,0,0,0,0,0,0,0,0,0,0],"sum_hessian":[1.1639553E2,4.291422E1,7.3481316E1,5.457552E1,1.8905792E1,8.297994E0,4.6277527E1,4.0595307E0,4.238463E0,2.2684206E1,2.3593323E1,2.5291271E0,1.5304036E0,2.2795238E0,1.9589392E0,1.4112876E1,8.571329E0,3.277059E0,2.0316263E1,1.0172877E0,1.5118394E0,1.265625E0,1.0138987E0,1.0092813E0,1.3103595E1,5.0560527E0,3.5152764E0,1.2476935E0,2.0293655E0,1.8558285E1,1.7579789E0],"tree_param":{"num_deleted":"0","num_feature":"24","num_nodes":"31","size_leaf_vector":"1"}},{"base_weights":[4.347032E-2,-7.4928515E-2,9.308887E-1,6.873049E-1,7.3927715E-2,3.155598E-1,9.9513465E-1,-3.601329E-1,6.385736E-1,-3.1194434E-2,1.1216584E0,3.3605018E-1,-1.0625832E0,8.9603895E-1,-6.1844647E-2,6.511574E-2,5.637408E-1,3.0250872E-2,-9.2435535E-4,-9.8002E-3,-6.608732E-2,5.606336E-2,-2.5785852E-2,2.2901436E-2,-3.44288E-2,-2.9356897E-2,4.453972E-2],"categories":[],"categories_nodes":[],"categories_segments":[],"categories_sizes":[],"default_left":[0,0,0,0,0,0,0,0,0,0,0,0,0,0,0,0,0,0,0,0,0,0,0,0,0,0,0],"id":8,"left_children":[1,-1,3,5,-1,7,9,11,13,-1,15,17,19,21,23,-1,25,-1,-1,-1,-1,-1,-1,-1,-1,-1,-1],"loss_changes":[1.6258612E2,0E0,9.040009E0,5.8705654E0,0E0,5.892744E0,6.6607037E0,4.7735214E0,3.2859735E0,0E0,2.022255E0,5.1615214E-1,8.044586E-1,4.763913E0,2.18904E0,0E0,3.7045705E0,0E0,0E0,0E0,0E0,0E0,0E0,0E0,0E0,0E0,0E0],"parents":[2147483647,0,0,2,2,3,3,5,5,6,6,7,7,8,8,10,10,11,11,12,12,13,13,14,14,16,16],"right_children":[2,-1,4,6,-1,8,10,12,14,-1,16,18,20,22,24,-1,26,-1,-1,-1,-1,-1,-1,-1,-1,-1,-1],"split_conditions":[2E0,-7.4928515E-2,3E0,3E0,7.3927715E-2,1.6E1,3.705E1,3.028E0,2E0,-3.1194434E-2,6.048E1,1E0,4.899E1,2.7E1,1E0,6.511574E-2,6.395E1,3.0250872E-2,-9.2435535E-4,-9.8002E-3,-6.608732E-2,5.606336E-2,-2.5785852E-2,2.2901436E-2,-3.44288E-2,-2.9356897E-2,4.453972E-2],"split_indices":[1,0,1,4,0,11,0,14,7,0,0,18,0,11,18,0,0,0,0,0,0,0,0,0,0,0,0],"split_type":[0,0,0,0,0,0,0,0,0,0,0,0,0,0,0,0,0,0,0,0,0,0,0,0,0,0,0],"sum_hessian":[1.167923E2,4.240964E1,7.438265E1,5.3044956E1,2.13377E1,2.4945309E1,2.8099648E1,8.030947E0,1.691436E1,1.7518332E0,2.6347813E1,4.295437E0,3.73551E0,1.2163801E1,4.7505593E0,1.889521E1,7.4526024E0,2.0407426E0,2.2546942E0,1.264298E0,2.4712121E0,1.0667671E1,1.4961307E0,2.7437763E0,2.006783E0,1.4732176E0,5.979385E0],"tree_param":{"num_deleted":"0","num_feature":"24","num_nodes":"27","size_leaf_vector":"1"}},{"base_weights":[1.6245086E-2,-7.306273E-2,8.972391E-1,6.692094E-1,7.181545E-2,1.37257E-1,8.4674823E-1,4.220781E-1,-2.307361E-1,2.617022E-1,9.745268E-1,-1.00715324E-1,7.266221E-1,3.1839997E-1,-6.0289085E-2,8.5441935E-1,-5.319551E-1,1.0447525E0,9.00211E-2,3.02921E-2,-3.250697E-2,5.6711394E-2,8.627029E-3,3.2112934E-2,-1.5131501E-2,5.453375E-2,-3.4541779E-3,-5.394248E-2,7.475526E-3,5.8630418E-2,2.1488573E-2,-1.9617813E-2,2.641864E-2],"categories":[],"categories_nodes":[],"categories_segments":[],"categories_sizes":[],"default_left":[0,0,0,0,0,0,0,0,0,0,0,0,0,0,0,0,0,0,0,0,0,0,0,0,0,0,0,0,0,0,0,0,0],"id":9,"left_children":[1,-1,3,5,-1,7,9,11,13,15,17,19,21,23,-1,25,27,29,31,-1,-1,-1,-1,-1,-1,-1,-1,-1,-1,-1,-1,-1,-1],"loss_changes":[1.523773E2,0E0,8.052059E0,4.9269733E0,0E0,1.6230245E0,2.7235508E0,1.4358352E0,4.1304793E0,4.4574666E0,1.914402E0,1.9578276E0,1.0532176E0,1.2537706E0,0E0,1.2219174E0,1.7468458E0,1.8440514E0,9.416082E-1,0E0,0E0,0E0,0E0,0E0,0E0,0E0,0E0,0E0,0E0,0E0,0E0,0E0,0E0],"parents":[2147483647,0,0,2,2,3,3,5,5,6,6,7,7,8,8,9,9,10,10,11,11,12,12,13,13,15,15,16,16,17,17,18,18],"right_children":[2,-1,4,6,-1,8,10,12,14,16,18,20,22,24,-1,26,28,30,32,-1,-1,-1,-1,-1,-1,-1,-1,-1,-1,-1,-1,-1,-1],"split_conditions":[2E0,-7.306273E-2,3E0,3.054E0,7.181545E-2,1E0,1.6E1,5E0,3E0,1E0,1E1,4E0,6E0,5E0,-6.0289085E-2,4.032E0,3E0,2E0,2E0,3.02921E-2,-3.250697E-2,5.6711394E-2,8.627029E-3,3.2112934E-2,-1.5131501E-2,5.453375E-2,-3.4541779E-3,-5.394248E-2,7.475526E-3,5.8630418E-2,2.1488573E-2,-1.9617813E-2,2.641864E-2],"split_indices":[1,0,1,14,0,18,11,13,17,18,20,20,13,13,0,14,4,17,12,0,0,0,0,0,0,0,0,0,0,0,0,0,0],"split_type":[0,0,0,0,0,0,0,0,0,0,0,0,0,0,0,0,0,0,0,0,0,0,0,0,0,0,0,0,0,0,0,0,0],"sum_hessian":[1.1505583E2,4.2732037E1,7.23238E1,5.2399803E1,1.9923992E1,1.3555901E1,3.8843903E1,7.558648E0,5.997253E0,7.5094223E0,3.133448E1,3.0287154E0,4.5299325E0,4.2673655E0,1.7298871E0,4.2550883E0,3.2543337E0,2.8861818E1,2.4726632E0,1.2799802E0,1.7487352E0,2.0066874E0,2.5232453E0,2.7822678E0,1.4850978E0,3.2441356E0,1.0109527E0,1.481921E0,1.7724128E0,2.3143494E1,5.7183247E0,1.2271703E0,1.2454928E0],"tree_param":{"num_deleted":"0","num_feature":"24","num_nodes":"33","size_leaf_vector":"1"}},{"base_weights":[-6.102935E-2,-5.562245E-1,4.6378082E-1,-7.4686867E-1,-1.5981358E-1,6.26938E-1,-2.5798815E-1,-6.784268E-2,-5.6977856E-1,7.9088606E-2,-8.500957E-1,1.23787776E-1,8.8914686E-1,-5.794404E-2,2.3746611E-1,-1.7886649E-1,-8.488766E-1,-3.678632E-2,2.3790166E-1,-6.378726E-2,-1.1152579E-3,-4.1378784E-1,6.3886744E-1,1.0477926E0,-2.768739E-2,3.7294958E-2,-1.6584732E-1,1.845366E-1,-9.099988E-1,-1.9351026E-1,-1.1604948E0,3.7321553E-1,-3.717507E-2,1.41383E-1,-6.074236E-2,1.5148857E-1,1.0713532E0,1.1590198E0,3.7534764E-1,2.3418E-2,-3.1741347E-2,-4.5641523E-2,3.1968102E-1,-3.1607218E-2,2.4187725E-2,-5.4482915E-2,-6.407679E-3,-3.2789227E-2,4.097418E-2,-6.270652E-2,-1.53143285E-2,6.5624043E-3,4.8946735E-2,-3.011457E-2,2.7607491E-2,2.9459497E-2,-2.5257928E-2,6.069509E-2,1.6993843E-2,2.770009E-2,6.4376414E-2,4.5279533E-2,-2.8676761E-2,-1.3878797E-2,4.1969024E-2],"categories":[],"categories_nodes":[],"categories_segments":[],"categories_sizes":[],"default_left":[0,0,0,0,0,0,0,0,0,0,0,0,0,0,0,0,0,0,0,0,0,0,0,0,0,0,0,0,0,0,0,0,0,0,0,0,0,0,0,0,0,0,0,0,0,0,0,0,0,0,0,0,0,0,0,0,0,0,0,0,0,0,0,0,0],"id":10,"left_children":[1,3,5,7,9,11,13,-1,15,17,19,21,23,-1,25,27,29,-1,31,-1,-1,33,35,37,39,-1,41,43,45,47,49,51,-1,53,-1,55,57,59,61,-1,-1,-1,63,-1,-1,-1,-1,-1,-1,-1,-1,-1,-1,-1,-1,-1,-1,-1,-1,-1,-1,-1,-1,-1,-1],"loss_changes":[2.9944918E1,4.3567696E0,6.7567444E0,3.517786E0,3.4489753E0,5.9546394E0,5.200201E0,0E0,3.3949633E0,2.2647698E0,1.8592734E0,4.94678E0,4.4010677E0,0E0,1.7536669E0,4.102549E0,3.5944262E0,0E0,2.1725793E0,0E0,0E0,4.1215696E0,1.7408836E0,1.4834518E0,1.9261224E0,0E0,2.1961536E0,2.9262347E0,5.746732E-1,3.9213638E0,6.135769E-1,1.807216E0,0E0,2.208674E0,0E0,1.8524945E0,6.907511E-2,9.6071815E-1,3.095214E0,0E0,0E0,0E0,1.4506396E0,0E0,0E0,0E0,0E0,0E0,0E0,0E0,0E0,0E0,0E0,0E0,0E0,0E0,0E0,0E0,0E0,0E0,0E0,0E0,0E0,0E0,0E0],"parents":[2147483647,0,0,1,1,2,2,3,3,4,4,5,5,6,6,8,8,9,9,10,10,11,11,12,12,14,14,15,15,16,16,18,18,21,21,22,22,23,23,24,24,26,26,27,27,28,28,29,29,30,30,31,31,33,33,35,35,36,36,37,37,38,38,42,42],"right_children":[2,4,6,8,10,12,14,-1,16,18,20,22,24,-1,26,28,30,-1,32,-1,-1,34,36,38,40,-1,42,44,46,48,50,52,-1,54,-1,56,58,60,62,-1,-1,-1,64,-1,-1,-1,-1,-1,-1,-1,-1,-1,-1,-1,-1,-1,-1,-1,-1,-1,-1,-1,-1,-1,-1],"split_conditions":[5E0,4E0,6.788E1,3E0,8E0,3E0,6E0,-6.784268E-2,1E0,4.319E1,2.6E1,7E0,6.032E0,-5.794404E-2,4.032E0,5.052E0,2E0,-3.678632E-2,7.022E1,-6.378726E-2,-1.1152579E-3,1E0,4.02E0,3E0,7E0,3.7294958E-2,4.062E0,1E0,4.9E1,6.627E1,4E0,6.55E1,-3.717507E-2,3.03E0,-6.074236E-2,3.028E0,2.3E1,5.037E1,5.871E1,2.3418E-2,-3.1741347E-2,-4.5641523E-2,6E0,-3.1607218E-2,2.4187725E-2,-5.4482915E-2,-6.407679E-3,-3.2789227E-2,4.097418E-2,-6.270652E-2,-1.53143285E-2,6.5624043E-3,4.8946735E-2,-3.011457E-2,2.7607491E-2,2.9459497E-2,-2.5257928E-2,6.069509E-2,1.6993843E-2,2.770009E-2,6.4376414E-2,4.5279533E-2,-2.8676761E-2,-1.3878797E-2,4.1969024E-2],"split_indices":[13,13,0,20,20,4,20,0,23,0,11,13,14,0,14,14,12,0,0,0,0,10,14,22,10,0,14,3,11,0,17,0,0,14,0,14,11,0,0,0,0,0,13,0,0,0,0,0,0,0,0,0,0,0,0,0,0,0,0,0,0,0,0,0,0],"split_type":[0,0,0,0,0,0,0,0,0,0,0,0,0,0,0,0,0,0,0,0,0,0,0,0,0,0,0,0,0,0,0,0,0,0,0,0,0,0,0,0,0,0,0,0,0,0,0,0,0,0,0,0,0,0,0,0,0,0,0,0,0,0,0,0,0],"sum_hessian":[1.1323177E2,5.822888E1,5.500289E1,3.8722275E1,1.9506605E1,4.4968964E1,1.0033929E1,7.213505E0,3.150877E1,1.5149045E1,4.357561E0,1.5910514E1,2.9058449E1,3.0851405E0,6.9487886E0,1.3808748E1,1.7700022E1,1.8784922E0,1.3270553E1,2.5204184E0,1.8371425E0,7.881473E0,8.029041E0,2.4650225E1,4.4082246E0,2.6980681E0,4.2507205E0,9.723411E0,4.085337E0,6.226344E0,1.1473679E1,1.2207166E1,1.063387E0,5.141608E0,2.7398648E0,4.409802E0,3.6192396E0,2.0530706E1,4.119517E0,2.5518677E0,1.8563569E0,1.3278117E0,2.9229088E0,2.3088937E0,7.414517E0,3.0018451E0,1.083492E0,4.5174556E0,1.7088885E0,9.918287E0,1.5553911E0,9.592084E0,2.6150815E0,1.6635559E0,3.4780521E0,2.7076757E0,1.7021261E0,2.4770036E0,1.142236E0,4.527279E0,1.6003428E1,2.6720047E0,1.4475123E0,1.576747E0,1.3461618E0],"tree_param":{"num_deleted":"0","num_feature":"24","num_nodes":"65","size_leaf_vector":"1"}},{"base_weights":[-6.516785E-3,-4.9261823E-1,4.7217155E-1,-6.595738E-1,7.0818506E-2,6.318413E-1,-1.9785216E-1,-6.6461265E-2,-5.370057E-1,-3.4782815E-1,8.110599E-1,3.216994E-1,9.1896033E-1,-5.985045E-2,3.2949984E-1,7.1856594E-1,-7.058894E-1,5.947218E-1,-9.981304E-1,5.715937E-2,2.742776E-3,5.039424E-1,-4.6071485E-1,3.5804993E-1,1.125184E0,4.8988998E-2,-3.3430263E-1,5.8550037E-2,-1.1713876E-2,-5.546109E-1,-6.0680237E-2,-1.2518768E-2,4.870845E-2,-6.143439E-2,-1.1813401E-2,-1.691464E-2,5.9296006E-1,1.7375456E-2,-6.0923267E-2,4.2741816E-2,-4.007226E-1,1.1171403E-2,1.2183383E0,1.7158028E-2,-7.039214E-1,-3.3224847E-2,3.5984006E-2,-7.0682555E-3,3.2781627E-2,-5.2097317E-2,2.361144E-2,1.6482234E-2,6.47026E-2,-4.5564484E-2,-6.499427E-3],"categories":[],"categories_nodes":[],"categories_segments":[],"categories_sizes":[],"default_left":[0,0,0,0,0,0,0,0,0,0,0,0,0,0,0,0,0,0,0,0,0,0,0,0,0,0,0,0,0,0,0,0,0,0,0,0,0,0,0,0,0,0,0,0,0,0,0,0,0,0,0,0,0,0,0],"id":11,"left_children":[1,3,5,7,9,11,13,-1,15,17,19,21,23,-1,25,27,29,31,33,-1,-1,35,37,39,41,-1,43,-1,-1,45,-1,-1,-1,-1,-1,-1,47,-1,-1,-1,49,-1,51,-1,53,-1,-1,-1,-1,-1,-1,-1,-1,-1,-1],"loss_changes":[2.4994135E1,5.0594034E0,5.915578E0,2.6681213E0,4.3367333E0,3.6178799E0,6.284098E0,0E0,8.248335E0,6.1450734E0,1.1997511E0,3.4640794E0,2.174631E0,0E0,3.8241656E0,2.353879E0,1.8371868E0,1.6305786E0,7.1668005E-1,0E0,0E0,1.6147041E0,3.3658133E0,3.153392E0,1.0571918E0,0E0,1.432012E0,0E0,0E0,4.2620144E0,0E0,0E0,0E0,0E0,0E0,0E0,8.9446497E-1,0E0,0E0,0E0,2.5246751E0,0E0,5.2347374E-1,0E0,2.8663218E-1,0E0,0E0,0E0,0E0,0E0,0E0,0E0,0E0,0E0,0E0],"parents":[2147483647,0,0,1,1,2,2,3,3,4,4,5,5,6,6,8,8,9,9,10,10,11,11,12,12,14,14,15,15,16,16,17,17,18,18,21,21,22,22,23,23,24,24,26,26,29,29,36,36,40,40,42,42,44,44],"right_children":[2,4,6,8,10,12,14,-1,16,18,20,22,24,-1,26,28,30,32,34,-1,-1,36,38,40,42,-1,44,-1,-1,46,-1,-1,-1,-1,-1,-1,48,-1,-1,-1,50,-1,52,-1,54,-1,-1,-1,-1,-1,-1,-1,-1,-1,-1],"split_conditions":[5E0,1E0,6.77E1,3.038E0,3E0,7E0,6E0,-6.6461265E-2,3.062E0,4.945E1,1E0,2E0,2E0,-5.985045E-2,4.032E0,2E0,7.158E1,5E0,6.525E1,5.715937E-2,2.742776E-3,3.94E1,1E0,5.438E1,3.032E0,4.8988998E-2,2E0,5.8550037E-2,-1.1713876E-2,6.818E1,-6.0680237E-2,-1.2518768E-2,4.870845E-2,-6.143439E-2,-1.1813401E-2,-1.691464E-2,2E0,1.7375456E-2,-6.0923267E-2,4.2741816E-2,3E0,1.1171403E-2,4.306E1,1.7158028E-2,1E0,-3.3224847E-2,3.5984006E-2,-7.0682555E-3,3.2781627E-2,-5.2097317E-2,2.361144E-2,1.6482234E-2,6.47026E-2,-4.5564484E-2,-6.499427E-3],"split_indices":[13,7,0,14,4,13,20,0,14,0,9,17,5,0,14,12,0,19,0,0,0,0,18,0,14,0,19,0,0,0,0,0,0,0,0,0,4,0,0,0,19,0,0,0,22,0,0,0,0,0,0,0,0,0,0],"split_type":[0,0,0,0,0,0,0,0,0,0,0,0,0,0,0,0,0,0,0,0,0,0,0,0,0,0,0,0,0,0,0,0,0,0,0,0,0,0,0,0,0,0,0,0,0,0,0,0,0,0,0,0,0,0,0],"sum_hessian":[1.0541376E2,5.228746E1,5.31263E1,4.020379E1,1.208367E1,4.2948467E1,1.0177834E1,4.6969867E0,3.55068E1,8.057073E0,4.0265965E0,2.1665804E1,2.1282661E1,3.0773778E0,7.100456E0,3.8238046E0,3.1682999E1,3.3242965E0,4.7327766E0,2.4422212E0,1.5843756E0,1.7861378E1,3.8044274E0,6.4568415E0,1.482582E1,3.3463066E0,3.7541497E0,2.4374747E0,1.3863299E0,2.6021896E1,5.6611023E0,1.1354972E0,2.1887994E0,3.1628742E0,1.5699022E0,1.4396772E0,1.64217E1,2.1028748E0,1.7015527E0,3.8255556E0,2.631286E0,1.7063544E0,1.3119466E1,1.3504791E0,2.4036705E0,2.4396635E1,1.6252602E0,1.1925962E0,1.5229104E1,1.4053789E0,1.225907E0,1.4503039E0,1.1669162E1,1.3339143E0,1.0697563E0],"tree_param":{"num_deleted":"0","num_feature":"24","num_nodes":"55","size_leaf_vector":"1"}},{"base_weights":[2.5089283E-2,-6.127986E-1,3.600831E-1,-9.677447E-1,-4.2693028E-1,4.2994502E-1,-7.2799367E-1,-1.1673267E-3,-5.3276446E-2,-1.3639851E-1,-7.02857E-1,1.9582587E-1,7.6599425E-1,-5.4561216E-2,-7.1634846E-3,2.2288883E-1,-8.6987907E-1,5.452186E-2,-1.0076848E0,-1.8709207E-1,4.112797E-1,1.3152829E-1,9.00091E-1,-1.9009946E-1,7.555566E-1,1.93466E-3,-5.7683993E-2,2.5120063E-2,-2.3685126E-2,-3.704834E-3,-5.594483E-2,-4.5492697E-1,4.1899914E-1,8.288944E-1,2.02538E-1,-3.9570788E-1,3.3443622E-2,9.82096E-1,2.814914E-1,8.888814E-3,-3.04463E-2,5.0346147E-2,-1.5305204E-3,3.259641E-2,-3.55646E-2,3.5336267E-2,-1.4594193E-2,1.1334724E-2,5.680279E-2,4.407245E-2,-7.4025145E-4,1.8042019E-2,-5.277547E-2,5.2236766E-2,1.4672557E-2,3.9740708E-2,-2.0891635E-2],"categories":[],"categories_nodes":[],"categories_segments":[],"categories_sizes":[],"default_left":[0,0,0,0,0,0,0,0,0,0,0,0,0,0,0,0,0,0,0,0,0,0,0,0,0,0,0,0,0,0,0,0,0,0,0,0,0,0,0,0,0,0,0,0,0,0,0,0,0,0,0,0,0,0,0,0,0],"id":12,"left_children":[1,3,5,7,9,11,13,-1,-1,15,17,19,21,-1,-1,23,25,27,29,31,33,35,37,39,41,-1,-1,-1,-1,-1,-1,43,45,47,49,51,-1,53,55,-1,-1,-1,-1,-1,-1,-1,-1,-1,-1,-1,-1,-1,-1,-1,-1,-1,-1],"loss_changes":[2.381771E1,2.1197987E0,5.8646593E0,1.1207657E0,2.0676303E0,5.298751E0,8.583822E-1,0E0,0E0,3.9852514E0,3.1950226E0,3.5553558E0,2.2718468E0,0E0,0E0,2.4430668E0,1.316931E0,1.3858443E0,9.293175E-1,2.7665777E0,2.21139E0,1.9851763E0,8.913708E-1,1.1385193E0,9.726453E-1,0E0,0E0,0E0,0E0,0E0,0E0,3.7225811E0,1.3074839E0,1.3651471E0,2.8934917E0,2.2246008E0,0E0,5.528984E-1,1.8026139E0,0E0,0E0,0E0,0E0,0E0,0E0,0E0,0E0,0E0,0E0,0E0,0E0,0E0,0E0,0E0,0E0,0E0,0E0],"parents":[2147483647,0,0,1,1,2,2,3,3,4,4,5,5,6,6,9,9,10,10,11,11,12,12,15,15,16,16,17,17,18,18,19,19,20,20,21,21,22,22,23,23,24,24,31,31,32,32,33,33,34,34,35,35,37,37,38,38],"right_children":[2,4,6,8,10,12,14,-1,-1,16,18,20,22,-1,-1,24,26,28,30,32,34,36,38,40,42,-1,-1,-1,-1,-1,-1,44,46,48,50,52,-1,54,56,-1,-1,-1,-1,-1,-1,-1,-1,-1,-1,-1,-1,-1,-1,-1,-1,-1,-1],"split_conditions":[4E0,4E0,7E0,1.3E1,1E0,7E0,1E0,-1.1673267E-3,-5.3276446E-2,2E0,2E0,2E1,1.6E1,-5.4561216E-2,-7.1634846E-3,3E0,1.4E1,2.1E1,1.2E1,1E0,2E0,7E0,2E0,1E0,2.4E1,1.93466E-3,-5.7683993E-2,2.5120063E-2,-2.3685126E-2,-3.704834E-3,-5.594483E-2,1E0,6E0,2.1E1,1E0,1.3E1,3.3443622E-2,1E1,2.1E1,8.888814E-3,-3.04463E-2,5.0346147E-2,-1.5305204E-3,3.259641E-2,-3.55646E-2,3.5336267E-2,-1.4594193E-2,1.1334724E-2,5.680279E-2,4.407245E-2,-7.4025145E-4,1.8042019E-2,-5.277547E-2,5.2236766E-2,1.4672557E-2,3.9740708E-2,-2.0891635E-2],"split_indices":[13,20,10,11,23,13,18,0,0,22,5,11,11,0,0,13,11,11,11,8,12,20,7,18,11,0,0,0,0,0,0,2,13,11,5,11,0,20,11,0,0,0,0,0,0,0,0,0,0,0,0,0,0,0,0,0,0],"split_type":[0,0,0,0,0,0,0,0,0,0,0,0,0,0,0,0,0,0,0,0,0,0,0,0,0,0,0,0,0,0,0,0,0,0,0,0,0,0,0,0,0,0,0,0,0,0,0,0,0,0,0,0,0,0,0,0,0],"sum_hessian":[1.09427345E2,3.7393734E1,7.2033615E1,1.1405824E1,2.598791E1,6.8255974E1,3.7776406E0,1.1863945E0,1.0219429E1,1.338683E1,1.260108E1,4.116195E1,2.7094025E1,1.7958419E0,1.9817988E0,9.452667E0,3.9341629E0,3.8518543E0,8.749226E0,1.4868451E1,2.6293497E1,5.0729055E0,2.2021118E1,5.6867394E0,3.765928E0,1.1419464E0,2.7922163E0,2.1109092E0,1.7409451E0,1.1086575E0,7.640568E0,1.0484641E1,4.3838096E0,7.772567E0,1.852093E1,2.6935802E0,2.3793254E0,1.8924738E1,3.0963802E0,3.3339267E0,2.3528128E0,2.6407752E0,1.1251528E0,1.681557E0,8.803084E0,3.1248798E0,1.25893E0,3.2124622E0,4.560105E0,3.7503755E0,1.4770555E1,1.4658734E0,1.2277068E0,1.6872889E1,2.0518498E0,1.7069134E0,1.3894669E0],"tree_param":{"num_deleted":"0","num_feature":"24","num_nodes":"57","size_leaf_vector":"1"}},{"base_weights":[-6.0029596E-2,4.587723E-1,-2.0688543E-1,2.7736142E-1,5.41654E-2,-8.707383E-2,-8.828734E-1,-1.4595501E-1,5.263992E-1,-1.9257678E-2,-4.5397136E-2,-4.7116256E-1,-6.135738E-2,3.10455E-1,-8.2662874E-1,1.8871224E-1,5.379497E-2,-4.685418E-1,1.019315E-1,-4.6399932E-2,-1.350084E-1,-1.9041812E-1,3.951565E-2,-5.316306E-2,-7.4752006E-3,-6.532171E-1,6.077689E-1,4.803338E-2,-1.1970599E0,7.340988E-1,-2.2095791E-4,2.510385E-1,-3.884163E-2,1.2119126E-3,-1.534884E-2,-5.3564645E-3,-4.361986E-2,3.9815105E-2,8.530415E-3,-3.5456568E-2,2.0939413E-2,-1.4105066E-2,-7.051778E-2,4.0546698E-3,5.284924E-2,-1.9746091E-2,1.02871675E-2,3.4478247E-2,-1.53448E-2],"categories":[],"categories_nodes":[],"categories_segments":[],"categories_sizes":[],"default_left":[0,0,0,0,0,0,0,0,0,0,0,0,0,0,0,0,0,0,0,0,0,0,0,0,0,0,0,0,0,0,0,0,0,0,0,0,0,0,0,0,0,0,0,0,0,0,0,0,0],"id":13,"left_children":[1,3,5,7,-1,9,11,13,15,17,-1,19,-1,21,23,25,-1,27,29,-1,31,33,-1,-1,-1,35,37,39,41,43,45,47,-1,-1,-1,-1,-1,-1,-1,-1,-1,-1,-1,-1,-1,-1,-1,-1,-1],"loss_changes":[7.987388E0,2.324038E0,6.517907E0,2.1109128E0,0E0,3.8946657E0,1.1439238E0,2.7200947E0,2.091419E0,3.6378179E0,0E0,9.736674E-1,0E0,1.466094E0,3.9477086E-1,3.5269487E0,0E0,5.396056E0,3.4065847E0,0E0,1.5064528E0,9.4612196E-2,0E0,0E0,0E0,3.170991E-1,3.9502168E-1,2.8969219E0,7.582569E-1,1.4615517E0,3.8542056E0,1.2051644E0,0E0,0E0,0E0,0E0,0E0,0E0,0E0,0E0,0E0,0E0,0E0,0E0,0E0,0E0,0E0,0E0,0E0],"parents":[2147483647,0,0,1,1,2,2,3,3,5,5,6,6,7,7,8,8,9,9,11,11,13,13,14,14,15,15,17,17,18,18,20,20,21,21,25,25,26,26,27,27,28,28,29,29,30,30,31,31],"right_children":[2,4,6,8,-1,10,12,14,16,18,-1,20,-1,22,24,26,-1,28,30,-1,32,34,-1,-1,-1,36,38,40,42,44,46,48,-1,-1,-1,-1,-1,-1,-1,-1,-1,-1,-1,-1,-1,-1,-1,-1,-1],"split_conditions":[2E0,1E0,4E0,2E0,5.41654E-2,7.713E1,1E0,2E0,2E0,4.81E1,-4.5397136E-2,5.411E1,-6.135738E-2,2.5E1,3.6E1,1E0,5.379497E-2,4.473E1,5.094E1,-4.6399932E-2,7.364E1,5.336E1,3.951565E-2,-5.316306E-2,-7.4752006E-3,5.094E1,2E0,1E0,2E0,1E0,4E0,2E0,-3.884163E-2,1.2119126E-3,-1.534884E-2,-5.3564645E-3,-4.361986E-2,3.9815105E-2,8.530415E-3,-3.5456568E-2,2.0939413E-2,-1.4105066E-2,-7.051778E-2,4.0546698E-3,5.284924E-2,-1.9746091E-2,1.02871675E-2,3.4478247E-2,-1.53448E-2],"split_indices":[19,7,10,5,0,0,23,10,10,0,0,0,0,11,11,9,0,0,0,0,0,0,0,0,0,0,12,22,12,9,20,5,0,0,0,0,0,0,0,0,0,0,0,0,0,0,0,0,0],"split_type":[0,0,0,0,0,0,0,0,0,0,0,0,0,0,0,0,0,0,0,0,0,0,0,0,0,0,0,0,0,0,0,0,0,0,0,0,0,0,0,0,0,0,0,0,0,0,0,0,0],"sum_hessian":[1.0259063E2,2.2164719E1,8.042591E1,1.8294706E1,3.870013E0,6.927625E1,1.114966E1,6.9296145E0,1.1365091E1,6.493509E1,4.3411584E0,6.1561747E0,4.993485E0,4.4737473E0,2.4558673E0,7.871318E0,3.4937732E0,1.31856785E1,5.1749413E1,1.8633006E0,4.2928743E0,2.4840686E0,1.9896785E0,1.3972992E0,1.058568E0,2.4301364E0,5.4411817E0,8.261622E0,4.9240565E0,6.3383603E0,4.5411053E1,3.0607498E0,1.2321244E0,1.1529071E0,1.3311616E0,1.1224134E0,1.3077229E0,3.2276633E0,2.2135184E0,2.415651E0,5.845971E0,1.3699722E0,3.5540845E0,2.5110862E0,3.8272743E0,1.5256584E1,3.0154469E1,1.581665E0,1.4790847E0],"tree_param":{"num_deleted":"0","num_feature":"24","num_nodes":"49","size_leaf_vector":"1"}},{"base_weights":[-6.887099E-2,-6.891548E-2,7.133293E-1,4.5150623E-1,6.851926E-2,4.1490823E-2,8.2555974E-1,1.6850458E-1,-8.1119895E-1,-9.3261555E-2,1.0445498E0,-5.978149E-2,3.300082E-1,5.215128E-5,-5.897969E-2,-3.3240896E-2,3.227979E-1,-1.59068E-2,1.1513672E0,3.907193E-2,-3.568825E-3,-1.898712E-2,3.8881164E-2,6.3637465E-2,3.505664E-2],"categories":[],"categories_nodes":[],"categories_segments":[],"categories_sizes":[],"default_left":[0,0,0,0,0,0,0,0,0,0,0,0,0,0,0,0,0,0,0,0,0,0,0,0,0],"id":14,"left_children":[1,-1,3,5,-1,7,9,11,13,15,17,-1,19,-1,-1,-1,21,-1,23,-1,-1,-1,-1,-1,-1],"loss_changes":[1.0507259E2,0E0,1.0439529E1,7.2439194E0,0E0,2.7026641E0,5.0800915E0,5.120023E0,9.718013E-1,1.5662924E0,3.2889748E0,0E0,3.672832E0,0E0,0E0,0E0,1.5615056E0,0E0,1.3703156E-1,0E0,0E0,0E0,0E0,0E0,0E0],"parents":[2147483647,0,0,2,2,3,3,5,5,6,6,7,7,8,8,9,9,10,10,12,12,16,16,18,18],"right_children":[2,-1,4,6,-1,8,10,12,14,16,18,-1,20,-1,-1,-1,22,-1,24,-1,-1,-1,-1,-1,-1],"split_conditions":[2E0,-6.891548E-2,3E0,2.1E1,6.851926E-2,3E0,3E0,4.319E1,1E0,1E0,3.261E1,-5.978149E-2,5.787E1,5.215128E-5,-5.897969E-2,-3.3240896E-2,1E0,-1.59068E-2,6.048E1,3.907193E-2,-3.568825E-3,-1.898712E-2,3.8881164E-2,6.3637465E-2,3.505664E-2],"split_indices":[1,0,1,11,0,22,4,0,3,22,0,0,0,0,0,0,9,0,0,0,0,0,0,0,0],"split_type":[0,0,0,0,0,0,0,0,0,0,0,0,0,0,0,0,0,0,0,0,0,0,0,0,0],"sum_hessian":[1.0062566E2,3.7345505E1,6.3280155E1,4.6455692E1,1.6824465E1,2.2692469E1,2.3763222E1,2.044886E1,2.243608E0,4.6841145E0,1.9079107E1,1.4868789E0,1.8961983E1,1.0112215E0,1.2323864E0,1.7214302E0,2.9626844E0,1.2430466E0,1.7836061E1,8.478973E0,1.0483009E1,1.2291596E0,1.7335248E0,1.2609667E1,5.2263947E0],"tree_param":{"num_deleted":"0","num_feature":"24","num_nodes":"25","size_leaf_vector":"1"}},{"base_weights":[8.882232E-2,-6.751392E-2,8.526169E-1,6.4300025E-1,6.733338E-2,-5.6846708E-2,8.1839776E-1,7.21177E-1,-8.461408E-1,8.580028E-1,-1.2770019E-2,4.8137568E-2,3.0342618E-3,9.5428963E-4,-6.3509375E-2,1.3942048E-2,9.187211E-1,2.3181623E-2,-1.9647075E-2,4.7810744E-2,1.0668393E-2],"categories":[],"categories_nodes":[],"categories_segments":[],"categories_sizes":[],"default_left":[0,0,0,0,0,0,0,0,0,0,0,0,0,0,0,0,0,0,0,0,0],"id":15,"left_children":[1,-1,3,5,-1,7,9,11,13,15,-1,-1,-1,-1,-1,17,19,-1,-1,-1,-1],"loss_changes":[1.19890114E2,0E0,6.505924E0,6.416363E0,0E0,7.5704026E0,1.9865036E0,9.3844414E-1,2.2573433E0,2.0530376E0,0E0,0E0,0E0,0E0,0E0,8.6292523E-1,7.900524E-1,0E0,0E0,0E0,0E0],"parents":[2147483647,0,0,2,2,3,3,5,5,6,6,7,7,8,8,9,9,15,15,16,16],"right_children":[2,-1,4,6,-1,8,10,12,14,16,-1,-1,-1,-1,-1,18,20,-1,-1,-1,-1],"split_conditions":[2E0,-6.751392E-2,3E0,1.6E1,6.733338E-2,1E0,7E0,7E0,5.136E1,2E0,-1.2770019E-2,4.8137568E-2,3.0342618E-3,9.5428963E-4,-6.3509375E-2,4.762E1,1E1,2.3181623E-2,-1.9647075E-2,4.7810744E-2,1.0668393E-2],"split_indices":[1,0,1,11,0,18,10,13,0,4,0,0,0,0,0,0,20,0,0,0,0],"split_type":[0,0,0,0,0,0,0,0,0,0,0,0,0,0,0,0,0,0,0,0,0],"sum_hessian":[1.0702519E2,3.6841866E1,7.018333E1,5.089219E1,1.9291134E1,1.0334155E1,4.0558033E1,5.2476945E0,5.0864606E0,3.9309155E1,1.2488807E0,3.5072808E0,1.7404137E0,1.9870557E0,3.099405E0,2.7204936E0,3.6588657E1,1.2260181E0,1.4944755E0,3.4404213E1,2.1844463E0],"tree_param":{"num_deleted":"0","num_feature":"24","num_nodes":"21","size_leaf_vector":"1"}},{"base_weights":[-2.3895133E-2,-6.048833E-1,2.526576E-1,-4.286317E-1,-5.847589E-2,4.0167356E-1,-4.5975736E-1,-9.8212314E-1,-1.9282913E-1,2.1416023E-1,7.5095445E-1,-5.778275E-2,9.040485E-3,2.4225081E-4,-5.8316614E-2,-5.260287E-2,1.7869448E-2,-5.976649E-1,3.2396528E-1,8.5190475E-1,-2.1589799E-2,7.134382E-1,-5.052379E-1,3.2016644E-1,-4.4217128E-1,1.8329324E-2,-5.5252727E-2,3.958959E-1,-3.8034838E-1,1.1532714E-2,1.0604327E0,4.233456E-2,1.1591229E-2,-4.5136224E-2,-1.174164E-1,-2.7788086E-2,3.097344E-2,-4.1793007E-2,1.1334443E-2,-3.368948E-2,2.445258E-2,2.7206993E-2,-5.063817E-2,3.0558035E-2,-4.72481E-2,5.7887614E-2,2.0636402E-2,-3.7384283E-2,2.2606902E-2],"categories":[],"categories_nodes":[],"categories_segments":[],"categories_sizes":[],"default_left":[0,0,0,0,0,0,0,0,0,0,0,0,0,0,0,0,0,0,0,0,0,0,0,0,0,0,0,0,0,0,0,0,0,0,0,0,0,0,0,0,0,0,0,0,0,0,0,0,0],"id":16,"left_children":[1,3,5,7,-1,9,11,13,15,17,19,-1,21,-1,-1,-1,23,25,27,29,-1,31,33,35,37,-1,-1,39,41,43,45,-1,-1,-1,47,-1,-1,-1,-1,-1,-1,-1,-1,-1,-1,-1,-1,-1,-1],"loss_changes":[1.566855E1,2.6272326E0,7.205078E0,3.1435447E0,0E0,3.4560518E0,3.8945498E0,1.3482795E0,3.486034E0,3.5214884E0,2.623518E0,0E0,3.2968678E0,0E0,0E0,0E0,2.4172497E0,2.753174E0,1.8494003E0,3.0969992E0,0E0,4.9848557E-2,7.064955E-1,3.0852013E0,2.0087326E0,0E0,0E0,3.4101481E0,2.6659853E0,3.1804428E0,4.1751862E-1,0E0,0E0,0E0,1.7083539E0,0E0,0E0,0E0,0E0,0E0,0E0,0E0,0E0,0E0,0E0,0E0,0E0,0E0,0E0],"parents":[2147483647,0,0,1,1,2,2,3,3,5,5,6,6,7,7,8,8,9,9,10,10,12,12,16,16,17,17,18,18,19,19,21,21,22,22,23,23,24,24,27,27,28,28,29,29,30,30,34,34],"right_children":[2,4,6,8,-1,10,12,14,16,18,20,-1,22,-1,-1,-1,24,26,28,30,-1,32,34,36,38,-1,-1,40,42,44,46,-1,-1,-1,48,-1,-1,-1,-1,-1,-1,-1,-1,-1,-1,-1,-1,-1,-1],"split_conditions":[4E0,3E0,6.788E1,4E0,-5.847589E-2,7E0,6E0,1.4E1,3.038E0,1.5E1,7E0,-5.778275E-2,4.032E0,2.4225081E-4,-5.8316614E-2,-5.260287E-2,2.4E1,4.007E1,5E0,4.022E0,-2.1589799E-2,2.1E1,4.08E0,1E0,1E0,1.8329324E-2,-5.5252727E-2,3.94E1,1E0,3.028E0,3E0,4.233456E-2,1.1591229E-2,-4.5136224E-2,6E0,-2.7788086E-2,3.097344E-2,-4.1793007E-2,1.1334443E-2,-3.368948E-2,2.445258E-2,2.7206993E-2,-5.063817E-2,3.0558035E-2,-4.72481E-2,5.7887614E-2,2.0636402E-2,-3.7384283E-2,2.2606902E-2],"split_indices":[13,10,0,20,0,13,20,11,14,11,10,0,14,0,0,0,11,0,10,14,0,11,14,3,7,0,0,0,5,14,22,0,0,0,13,0,0,0,0,0,0,0,0,0,0,0,0,0,0],"split_type":[0,0,0,0,0,0,0,0,0,0,0,0,0,0,0,0,0,0,0,0,0,0,0,0,0,0,0,0,0,0,0,0,0,0,0,0,0,0,0,0,0,0,0,0,0,0,0,0,0],"sum_hessian":[9.556654E1,3.0436865E1,6.512968E1,2.4536793E1,5.900072E0,5.4223846E1,1.090583E1,6.3848433E0,1.815195E1,3.6331978E1,1.7891869E1,3.7999396E0,7.1058908E0,1.1573918E0,5.227452E0,2.7882571E0,1.5363693E1,3.799327E0,3.253265E1,1.674258E1,1.1492893E0,2.8352456E0,4.270645E0,9.454863E0,5.9088297E0,1.4056025E0,2.3937244E0,2.9915337E1,2.6173155E0,3.538332E0,1.3204248E1,1.6270447E0,1.2082008E0,1.4533722E0,2.8172731E0,2.189701E0,7.265162E0,3.5623589E0,2.346471E0,1.8972064E0,2.801813E1,1.1198542E0,1.4974613E0,2.3968096E0,1.1415224E0,1.0794823E1,2.4094255E0,1.1888907E0,1.6283824E0],"tree_param":{"num_deleted":"0","num_feature":"24","num_nodes":"49","size_leaf_vector":"1"}},{"base_weights":[-2.2889353E-2,-7.3599124E-1,2.9282323E-1,-1.0235465E0,-1.0777628E-1,3.6090422E-1,-7.7468437E-1,-6.118491E-2,-5.0229394E-1,4.6960655E-1,-8.38717E-1,1.5859018E-1,7.017253E-1,-5.3611044E-3,-4.7064885E-2,2.012484E-2,-8.899367E-1,7.1208954E-1,-1.2804023E-2,-9.165059E-3,-4.9119394E-2,4.2988902E-1,-7.067723E-2,8.3206725E-1,-2.2733149E-1,-5.423199E-2,-1.2185771E-3,3.0037507E-3,4.3615032E-2,7.5447804E-1,-1.3577785E-1,-3.8340646E-1,5.302541E-1,2.513831E-1,9.68063E-1,-4.8954394E-2,3.7027203E-2,4.713985E-2,1.1414747E-2,2.2583293E-2,-6.5696314E-2,-5.7762373E-2,-6.1234906E-3,3.731785E-2,-1.5799468E-2,-2.292653E-2,3.4726627E-2,5.7507884E-2,9.062129E-3],"categories":[],"categories_nodes":[],"categories_segments":[],"categories_sizes":[],"default_left":[0,0,0,0,0,0,0,0,0,0,0,0,0,0,0,0,0,0,0,0,0,0,0,0,0,0,0,0,0,0,0,0,0,0,0,0,0,0,0,0,0,0,0,0,0,0,0,0,0],"id":17,"left_children":[1,3,5,7,9,11,13,-1,15,17,19,21,23,-1,-1,-1,25,27,-1,-1,-1,29,31,33,35,-1,-1,-1,-1,37,39,41,43,45,47,-1,-1,-1,-1,-1,-1,-1,-1,-1,-1,-1,-1,-1,-1],"loss_changes":[2.2283587E1,5.374922E0,5.2693653E0,1.5462418E0,4.889462E0,4.3860283E0,3.9216304E-1,0E0,2.9686604E0,1.3423802E0,2.9639125E-1,2.6564584E0,3.0958128E0,0E0,0E0,0E0,9.041629E-1,4.9138713E-1,0E0,0E0,0E0,3.6788883E0,4.6649756E0,1.4359169E0,3.4452963E0,0E0,0E0,0E0,0E0,1.0262828E0,6.095209E0,3.1203053E0,1.7986672E0,2.0128474E0,2.2098417E0,0E0,0E0,0E0,0E0,0E0,0E0,0E0,0E0,0E0,0E0,0E0,0E0,0E0,0E0],"parents":[2147483647,0,0,1,1,2,2,3,3,4,4,5,5,6,6,8,8,9,9,10,10,11,11,12,12,16,16,17,17,21,21,22,22,23,23,24,24,29,29,30,30,31,31,32,32,33,33,34,34],"right_children":[2,4,6,8,10,12,14,-1,16,18,20,22,24,-1,-1,-1,26,28,-1,-1,-1,30,32,34,36,-1,-1,-1,-1,38,40,42,44,46,48,-1,-1,-1,-1,-1,-1,-1,-1,-1,-1,-1,-1,-1,-1],"split_conditions":[4E0,6.676E1,7.598E1,7E0,7.446E1,7E0,4.016E0,-6.118491E-2,8E0,4.1E0,3.044E0,2E0,6.907E1,-5.3611044E-3,-4.7064885E-2,2.012484E-2,3.6E1,3.052E0,-1.2804023E-2,-9.165059E-3,-4.9119394E-2,5.958E1,3.1E1,3.06E0,7.364E1,-5.423199E-2,-1.2185771E-3,3.0037507E-3,4.3615032E-2,7E0,1E0,4.036E0,9E0,5.74E1,3E0,-4.8954394E-2,3.7027203E-2,4.713985E-2,1.1414747E-2,2.2583293E-2,-6.5696314E-2,-5.7762373E-2,-6.1234906E-3,3.731785E-2,-1.5799468E-2,-2.292653E-2,3.4726627E-2,5.7507884E-2,9.062129E-3],"split_indices":[13,0,0,20,0,13,14,0,20,14,14,12,0,0,0,0,11,14,0,0,0,0,11,14,0,0,0,0,0,20,9,14,20,0,22,0,0,0,0,0,0,0,0,0,0,0,0,0,0],"split_type":[0,0,0,0,0,0,0,0,0,0,0,0,0,0,0,0,0,0,0,0,0,0,0,0,0,0,0,0,0,0,0,0,0,0,0,0,0,0,0,0,0,0,0,0,0,0,0,0,0],"sum_hessian":[9.70214E1,2.9364475E1,6.765693E1,1.9712229E1,9.6522455E0,6.4222984E1,3.4339447E0,1.3269403E1,6.4428253E0,5.5923123E0,4.0599337E0,4.1219864E1,2.3003115E1,1.0142683E0,2.4196763E0,1.9209194E0,4.521906E0,4.2057343E0,1.3865781E0,1.1391333E0,2.9208004E0,1.8478575E1,2.2741291E1,2.0264503E1,2.7386122E0,3.4849005E0,1.0370053E0,1.1007917E0,3.1049423E0,1.1529163E1,6.94941E0,1.5195446E1,7.545845E0,4.3858695E0,1.58786335E1,1.534877E0,1.2037354E0,7.9073763E0,3.6217873E0,5.048685E0,1.9007249E0,2.973281E0,1.2222165E1,6.1048913E0,1.4409537E0,1.6722541E0,2.7136154E0,1.2519462E1,3.3591723E0],"tree_param":{"num_deleted":"0","num_feature":"24","num_nodes":"49","size_leaf_vector":"1"}},{"base_weights":[3.4215152E-2,-6.52258E-2,7.160614E-1,5.027503E-1,6.479961E-2,7.624309E-1,7.7137694E-2,8.124306E-1,-1.3412411E-2,-7.6781553E-1,3.9125943E-1,9.4546103E-1,5.019937E-1,-1.7974587E-1,-5.8876008E-2,6.44929E-1,-6.4986104E-1,1.1125749E-2,5.1673062E-2,3.4377318E-2,-1.4050068E-2,-1.3848722E-2,1.8709872E-3,4.345454E-2,-2.716654E-2,-6.324198E-2,1.804021E-2],"categories":[],"categories_nodes":[],"categories_segments":[],"categories_sizes":[],"default_left":[0,0,0,0,0,0,0,0,0,0,0,0,0,0,0,0,0,0,0,0,0,0,0,0,0,0,0],"id":18,"left_children":[1,-1,3,5,-1,7,9,11,-1,13,15,17,19,21,-1,23,25,-1,-1,-1,-1,-1,-1,-1,-1,-1,-1],"loss_changes":[9.578511E1,0E0,7.944969E0,5.736868E0,0E0,1.8904705E0,5.869758E0,8.139458E-1,0E0,1.2397985E0,4.633901E0,1.0875969E0,1.8628151E0,8.751358E-2,0E0,4.0239615E0,2.7092571E0,0E0,0E0,0E0,0E0,0E0,0E0,0E0,0E0,0E0,0E0],"parents":[2147483647,0,0,2,2,3,3,5,5,6,6,7,7,9,9,10,10,11,11,12,12,13,13,15,15,16,16],"right_children":[2,-1,4,6,-1,8,10,12,-1,14,16,18,20,22,-1,24,26,-1,-1,-1,-1,-1,-1,-1,-1,-1,-1],"split_conditions":[2E0,-6.52258E-2,3E0,1E0,6.479961E-2,7E0,1.6E1,1E0,-1.3412411E-2,1.4E1,9E0,3.032E0,2.9E1,1E0,-5.8876008E-2,2E0,1E0,1.1125749E-2,5.1673062E-2,3.4377318E-2,-1.4050068E-2,-1.3848722E-2,1.8709872E-3,4.345454E-2,-2.716654E-2,-6.324198E-2,1.804021E-2],"split_indices":[1,0,1,18,0,10,11,8,0,11,20,14,11,8,0,7,9,0,0,0,0,0,0,0,0,0,0],"split_type":[0,0,0,0,0,0,0,0,0,0,0,0,0,0,0,0,0,0,0,0,0,0,0,0,0,0,0],"sum_hessian":[1.0291113E2,3.4419323E1,6.8491806E1,5.1438515E1,1.7053293E1,3.1455238E1,1.9983276E1,3.0201855E1,1.2533841E0,5.024255E0,1.49590225E1,1.9710012E1,1.0491843E1,2.6538174E0,2.3704374E0,1.2334305E1,2.624717E0,2.5217447E0,1.7188267E1,8.580382E0,1.9114604E0,1.6428708E0,1.0109466E0,1.0602733E1,1.731573E0,1.4754374E0,1.1492796E0],"tree_param":{"num_deleted":"0","num_feature":"24","num_nodes":"27","size_leaf_vector":"1"}},{"base_weights":[8.852348E-3,-6.404088E-2,7.0697653E-1,5.1567715E-1,6.320362E-2,-3.0285463E-1,6.480502E-1,2.2656094E-1,-8.1315356E-1,-1.477149E-2,7.072447E-1,-1.7312517E-2,3.1455513E-2,-6.6031166E-3,-5.301993E-2,7.578069E-1,-1.8618796E-2,4.2463224E-2,9.409178E-3],"categories":[],"categories_nodes":[],"categories_segments":[],"categories_sizes":[],"default_left":[0,0,0,0,0,0,0,0,0,0,0,0,0,0,0,0,0,0,0],"id":19,"left_children":[1,-1,3,5,-1,7,9,11,13,-1,15,-1,-1,-1,-1,17,-1,-1,-1],"loss_changes":[8.8580414E1,0E0,6.149906E0,5.5269585E0,0E0,2.2186048E0,2.5918941E0,1.2503868E0,5.423479E-1,0E0,2.4899235E0,0E0,0E0,0E0,0E0,1.8700504E0,0E0,0E0,0E0],"parents":[2147483647,0,0,2,2,3,3,5,5,6,6,7,7,8,8,10,10,15,15],"right_children":[2,-1,4,6,-1,8,10,12,14,-1,16,-1,-1,-1,-1,18,-1,-1,-1],"split_conditions":[2E0,-6.404088E-2,3E0,3.032E0,6.320362E-2,5.507E1,3.705E1,3.026E0,2E0,-1.477149E-2,4E0,-1.7312517E-2,3.1455513E-2,-6.6031166E-3,-5.301993E-2,9E0,-1.8618796E-2,4.2463224E-2,9.409178E-3],"split_indices":[1,0,1,14,0,0,0,14,4,0,10,0,0,0,0,20,0,0,0],"split_type":[0,0,0,0,0,0,0,0,0,0,0,0,0,0,0,0,0,0,0],"sum_hessian":[9.637872E1,3.3555603E1,6.282312E1,4.819816E1,1.4624961E1,6.530257E0,4.1667904E1,3.4779947E0,3.0522628E0,2.2243268E0,3.9443577E1,1.4931537E0,1.984841E0,1.2215015E0,1.8307613E0,3.796369E1,1.4798856E0,3.2288578E1,5.6751113E0],"tree_param":{"num_deleted":"0","num_feature":"24","num_nodes":"19","size_leaf_vector":"1"}},{"base_weights":[4.3899577E-2,-6.299224E-2,7.0189726E-1,7.821395E-2,8.670011E-1,-2.4371575E-1,5.0177634E-2,9.139934E-1,-1.4322169E-2,3.72821E-1,-8.3504057E-1,9.570536E-1,-5.5769333E-3,-2.4936184E-1,7.578421E-1,-1.8182033E-1,-5.949204E-2,8.3760595E-1,6.1237454E-2,-1.6371852E-2,-1.9035647E-3,-4.053465E-3,5.2027263E-2,3.1801403E-2,-4.638314E-2,3.4291852E-2,5.6747507E-2],"categories":[],"categories_nodes":[],"categories_segments":[],"categories_sizes":[],"default_left":[0,0,0,0,0,0,0,0,0,0,0,0,0,0,0,0,0,0,0,0,0,0,0,0,0,0,0],"id":20,"left_children":[1,-1,3,5,7,9,-1,11,-1,13,15,17,-1,19,21,23,-1,25,-1,-1,-1,-1,-1,-1,-1,-1,-1],"loss_changes":[8.591678E1,0E0,6.781597E0,4.7195597E0,3.1071892E0,4.6677337E0,0E0,2.3446922E0,0E0,1.7559679E0,1.2688079E0,5.326576E-1,0E0,4.1196406E-2,1.1013939E0,2.6858451E0,0E0,8.852825E-1,0E0,0E0,0E0,0E0,0E0,0E0,0E0,0E0,0E0],"parents":[2147483647,0,0,2,2,3,3,4,4,5,5,7,7,9,9,10,10,11,11,13,13,14,14,15,15,17,17],"right_children":[2,-1,4,6,8,10,-1,12,-1,14,16,18,-1,20,22,24,-1,26,-1,-1,-1,-1,-1,-1,-1,-1,-1],"split_conditions":[2E0,-6.299224E-2,1.6E1,3E0,8E0,1E0,5.0177634E-2,4E0,-1.4322169E-2,4.02E0,5.507E1,3E0,-5.5769333E-3,5.701E1,4.998E1,1E0,-5.949204E-2,7E0,6.1237454E-2,-1.6371852E-2,-1.9035647E-3,-4.053465E-3,5.2027263E-2,3.1801403E-2,-4.638314E-2,3.4291852E-2,5.6747507E-2],"split_indices":[1,0,11,1,10,18,0,7,0,14,0,1,0,0,0,9,0,13,0,0,0,0,0,0,0,0,0],"split_type":[0,0,0,0,0,0,0,0,0,0,0,0,0,0,0,0,0,0,0,0,0,0,0,0,0,0,0],"sum_hessian":[9.812156E1,3.2604652E1,6.5516914E1,1.4022047E1,5.1494865E1,1.094934E1,3.072707E0,4.9678516E1,1.8163487E0,5.541298E0,5.4080424E0,4.774074E1,1.9377725E0,2.252946E0,3.288352E0,2.4358585E0,2.9721842E0,3.5866016E1,1.1874725E1,1.2436846E0,1.0092611E0,1.0086005E0,2.2797513E0,1.2320727E0,1.2037857E0,2.5934965E1,9.931052E0],"tree_param":{"num_deleted":"0","num_feature":"24","num_nodes":"27","size_leaf_vector":"1"}},{"base_weights":[7.5989746E-2,-6.1946746E-2,6.7094153E-1,4.611907E-1,6.1912745E-2,6.5597284E-1,1.7349608E-1,1.6085966E-1,7.791367E-1,4.2158633E-1,-7.970005E-1,9.872203E-1,-8.43153E-1,5.068769E-1,1.0618296E0,8.489952E-1,-1.3725394E-1,-8.697603E-3,-9.6219814E-1,5.566525E-2,1.5842065E-2,-6.325756E-2,-7.840963E-3,-3.4528967E-2,3.4731578E-2,6.1800767E-2,2.957516E-2,6.166581E-2,2.2977594E-2,-5.3070027E-2,1.50811495E-2,-5.8934648E-2,-1.368399E-2],"categories":[],"categories_nodes":[],"categories_segments":[],"categories_sizes":[],"default_left":[0,0,0,0,0,0,0,0,0,0,0,0,0,0,0,0,0,0,0,0,0,0,0,0,0,0,0,0,0,0,0,0,0],"id":21,"left_children":[1,-1,3,5,-1,7,9,11,13,15,17,19,21,23,25,27,29,-1,31,-1,-1,-1,-1,-1,-1,-1,-1,-1,-1,-1,-1,-1,-1],"loss_changes":[7.729078E1,0E0,7.5131435E0,2.7549334E0,0E0,1.714201E0,5.6394334E0,6.863644E0,1.3010178E0,4.462822E0,3.2979608E-1,2.3234844E-2,9.0836525E-1,3.646705E0,1.5452194E-1,9.972744E-1,3.8676515E0,0E0,2.136414E-1,0E0,0E0,0E0,0E0,0E0,0E0,0E0,0E0,0E0,0E0,0E0,0E0,0E0,0E0],"parents":[2147483647,0,0,2,2,3,3,5,5,6,6,7,7,8,8,9,9,10,10,11,11,12,12,13,13,14,14,15,15,16,16,18,18],"right_children":[2,-1,4,6,-1,8,10,12,14,16,18,20,22,24,26,28,30,-1,32,-1,-1,-1,-1,-1,-1,-1,-1,-1,-1,-1,-1,-1,-1],"split_conditions":[2E0,-6.1946746E-2,3E0,1E0,6.1912745E-2,4.762E1,3E0,1E0,2.2E1,5.717E1,4E0,4.255E1,7E0,5.316E1,6.048E1,1E0,1.6E1,-8.697603E-3,7E0,5.566525E-2,1.5842065E-2,-6.325756E-2,-7.840963E-3,-3.4528967E-2,3.4731578E-2,6.1800767E-2,2.957516E-2,6.166581E-2,2.2977594E-2,-5.3070027E-2,1.50811495E-2,-5.8934648E-2,-1.368399E-2],"split_indices":[1,0,1,18,0,0,17,5,11,0,20,0,13,0,0,10,11,0,13,0,0,0,0,0,0,0,0,0,0,0,0,0,0],"split_type":[0,0,0,0,0,0,0,0,0,0,0,0,0,0,0,0,0,0,0,0,0,0,0,0,0,0,0,0,0,0,0,0,0],"sum_hessian":[9.673473E1,2.9796965E1,6.693777E1,5.0193016E1,1.6744753E1,2.9166136E1,2.102688E1,6.2694187E0,2.2896717E1,1.7196497E1,3.8303823E0,3.4481318E0,2.8212872E0,1.3086354E1,9.810363E0,9.449884E0,7.746613E0,1.2330155E0,2.5973668E0,2.346157E0,1.1019746E0,1.2248381E0,1.596449E0,1.4107597E0,1.1675594E1,5.9710016E0,3.8393607E0,3.6656146E0,5.7842703E0,2.0375922E0,5.7090206E0,1.4344102E0,1.1629566E0],"tree_param":{"num_deleted":"0","num_feature":"24","num_nodes":"33","size_leaf_vector":"1"}},{"base_weights":[2.6049657E-2,-6.128618E-2,6.766766E-1,4.8640212E-1,6.0581625E-2,2.8841835E-1,7.500226E-1,5.680001E-1,-1.3530964E-1,8.724848E-1,-2.1737052E-2,-2.4324508E-2,7.1611744E-1,5.279045E-2,-4.035666E-1,3.4479737E-1,1.0903254E0,4.241966E-2,-1.5229811E-3,-5.87945E-2,-9.417864E-4,4.8731875E-2,-2.8328095E-2,2.4885016E-2,5.9942335E-2],"categories":[],"categories_nodes":[],"categories_segments":[],"categories_sizes":[],"default_left":[0,0,0,0,0,0,0,0,0,0,0,0,0,0,0,0,0,0,0,0,0,0,0,0,0],"id":22,"left_children":[1,-1,3,5,-1,7,9,11,13,15,-1,-1,17,-1,19,21,23,-1,-1,-1,-1,-1,-1,-1,-1],"loss_changes":[7.607533E1,0E0,5.664198E0,2.2361355E0,0E0,3.4483936E0,3.2127075E0,3.0564976E0,4.2990746E0,1.6968517E0,0E0,0E0,1.5671749E0,0E0,3.1323912E0,4.4160457E0,1.9440842E-1,0E0,0E0,0E0,0E0,0E0,0E0,0E0,0E0],"parents":[2147483647,0,0,2,2,3,3,5,5,6,6,7,7,8,8,9,9,12,12,14,14,15,15,16,16],"right_children":[2,-1,4,6,-1,8,10,12,14,16,-1,-1,18,-1,20,22,24,-1,-1,-1,-1,-1,-1,-1,-1],"split_conditions":[2E0,-6.128618E-2,3E0,2.1E1,6.0581625E-2,5.943E1,7E0,1.3E1,1.3E1,5E0,-2.1737052E-2,-2.4324508E-2,2E0,5.279045E-2,1.6E1,2.6E1,1E0,4.241966E-2,-1.5229811E-3,-5.87945E-2,-9.417864E-4,4.8731875E-2,-2.8328095E-2,2.4885016E-2,5.9942335E-2],"split_indices":[1,0,1,11,0,0,10,11,11,13,0,0,10,0,11,11,5,0,0,0,0,0,0,0,0],"split_type":[0,0,0,0,0,0,0,0,0,0,0,0,0,0,0,0,0,0,0,0,0,0,0,0,0],"sum_hessian":[9.1390045E1,3.0953388E1,6.043666E1,4.5988567E1,1.4448093E1,2.7459812E1,1.8528755E1,1.6338774E1,1.1121038E1,1.7031849E1,1.4969054E0,1.7309744E0,1.4607799E1,1.5045776E0,9.616461E0,5.731329E0,1.1300521E1,1.2293334E1,2.3144643E0,2.5137892E0,7.1026716E0,3.3480558E0,2.383273E0,2.6136744E0,8.686847E0],"tree_param":{"num_deleted":"0","num_feature":"24","num_nodes":"25","size_leaf_vector":"1"}},{"base_weights":[4.8798796E-2,-6.0477972E-2,6.340524E-1,4.4576672E-1,5.9739657E-2,7.044116E-1,8.678637E-2,-8.835665E-3,7.7380383E-1,2.867552E-1,-9.376511E-1,4.612301E-1,9.195228E-1,-3.1928304E-1,5.53824E-1,-9.465608E-3,-6.0658522E-2,-3.254806E-3,3.5496127E-2,5.140684E-2,8.117011E-3,2.3829153E-2,-5.5078335E-2,3.423262E-2,-2.3491237E-2],"categories":[],"categories_nodes":[],"categories_segments":[],"categories_sizes":[],"default_left":[0,0,0,0,0,0,0,0,0,0,0,0,0,0,0,0,0,0,0,0,0,0,0,0,0],"id":23,"left_children":[1,-1,3,5,-1,7,9,-1,11,13,15,17,19,21,23,-1,-1,-1,-1,-1,-1,-1,-1,-1,-1],"loss_changes":[7.095111E1,0E0,6.4042683E0,4.6538954E0,0E0,1.9328432E0,4.8590035E0,0E0,8.2466125E-1,3.335084E0,5.731282E-1,1.4498928E0,1.288167E0,4.6359816E0,2.184526E0,0E0,0E0,0E0,0E0,0E0,0E0,0E0,0E0,0E0,0E0],"parents":[2147483647,0,0,2,2,3,3,5,5,6,6,8,8,9,9,10,10,11,11,12,12,13,13,14,14],"right_children":[2,-1,4,6,-1,8,10,-1,12,14,16,18,20,22,24,-1,-1,-1,-1,-1,-1,-1,-1,-1,-1],"split_conditions":[2E0,-6.0477972E-2,3E0,1E0,5.9739657E-2,3.468E1,3E0,-8.835665E-3,5.316E1,1.6E1,4E0,1.9E1,3E0,5.507E1,1E1,-9.465608E-3,-6.0658522E-2,-3.254806E-3,3.5496127E-2,5.140684E-2,8.117011E-3,2.3829153E-2,-5.5078335E-2,3.423262E-2,-2.3491237E-2],"split_indices":[1,0,1,18,0,0,21,0,0,11,20,11,22,0,20,0,0,0,0,0,0,0,0,0,0],"split_type":[0,0,0,0,0,0,0,0,0,0,0,0,0,0,0,0,0,0,0,0,0,0,0,0,0],"sum_hessian":[9.4299545E1,2.9596708E1,6.4702835E1,4.978199E1,1.492085E1,2.8375338E1,2.140665E1,1.9586247E0,2.6416714E1,1.8513018E1,2.8936317E0,9.723843E0,1.6692871E1,5.6030183E0,1.291E1,1.2326734E0,1.6609583E0,3.3571353E0,6.366708E0,1.4285798E1,2.4070723E0,2.971106E0,2.6319122E0,1.1740641E1,1.169359E0],"tree_param":{"num_deleted":"0","num_feature":"24","num_nodes":"25","size_leaf_vector":"1"}},{"base_weights":[2.277138E-2,-5.9606183E-2,5.9021366E-1,-3.5008818E-1,7.158601E-1,2.2349326E-2,-6.705551E-1,5.406692E-1,5.8698434E-2,-1.0312961E0,1.0080046E-2,-1.4894778E-2,5.9388185E-1,-6.095015E-2,-1.8980375E-2,6.949932E-1,3.1045735E-2,3.9820615E-2,4.446876E-3,1.9916145E-2,-3.8608372E-2],"categories":[],"categories_nodes":[],"categories_segments":[],"categories_sizes":[],"default_left":[0,0,0,0,0,0,0,0,0,0,0,0,0,0,0,0,0,0,0,0,0],"id":24,"left_children":[1,-1,3,5,7,-1,9,11,-1,13,-1,-1,15,-1,-1,17,19,-1,-1,-1,-1],"loss_changes":[6.4250656E1,0E0,7.75301E0,2.3832333E0,3.887291E0,0E0,2.1641128E0,2.0783434E0,0E0,9.529686E-2,0E0,0E0,2.2777243E0,0E0,0E0,2.0314999E0,2.4314852E0,0E0,0E0,0E0,0E0],"parents":[2147483647,0,0,2,2,3,3,4,4,6,6,7,7,9,9,12,12,15,15,16,16],"right_children":[2,-1,4,6,8,-1,10,12,-1,14,-1,-1,16,-1,-1,18,20,-1,-1,-1,-1],"split_conditions":[2E0,-5.9606183E-2,3.032E0,1E0,3E0,2.2349326E-2,3E0,3.705E1,5.8698434E-2,3.03E0,1.0080046E-2,-1.4894778E-2,3E0,-6.095015E-2,-1.8980375E-2,3E0,5.871E1,3.9820615E-2,4.446876E-3,1.9916145E-2,-3.8608372E-2],"split_indices":[1,0,14,5,1,0,17,0,0,14,0,0,22,0,0,17,0,0,0,0,0],"split_type":[0,0,0,0,0,0,0,0,0,0,0,0,0,0,0,0,0,0,0,0,0],"sum_hessian":[9.117963E1,2.8678347E1,6.2501274E1,7.1566553E0,5.534462E1,1.9390347E0,5.217621E0,4.1611626E1,1.3732994E1,3.5618865E0,1.6557341E0,2.2086046E0,3.9403023E1,2.0895116E0,1.472375E0,3.320336E1,6.199661E0,2.8174473E1,5.028888E0,4.6002426E0,1.599418E0],"tree_param":{"num_deleted":"0","num_feature":"24","num_nodes":"21","size_leaf_vector":"1"}},{"base_weights":[4.116034E-2,-3.0365694E-1,3.4995466E-1,-4.5038566E-1,1.3503328E-1,4.6997756E-1,-2.4270557E-1,-6.5449625E-1,-2.0949836E-1,5.3914213E-1,-3.7149855E-1,-1.8266328E-2,5.089695E-1,1.898336E-1,-5.2994262E-2,-5.8483947E-2,-3.5621545E-1,2.0853715E-1,-7.3421335E-1,-7.6440624E-3,8.467982E-1,-4.991641E-2,1.459077E-1,5.41588E-1,-1.0097112E-2,4.4492742E-1,-3.0747904E-2,-6.7502785E-1,1.7635633E-1,4.7251084E-1,-2.7164338E-2,7.761692E-3,-9.906144E-1,4.9370345E-2,1.1610085E-2,3.2734115E-2,-2.3444599E-2,1.8655442E-1,6.138546E-1,-1.0662676E-1,4.053087E-2,-1.8861591E-3,-3.9808027E-2,-2.5856579E-2,2.3354955E-2,-8.481278E-3,3.5351034E-2,-4.147745E-3,-5.81445E-2,-3.9075416E-2,2.7350167E-2,2.1833433E-2,4.4726904E-2,-1.4816544E-2,6.5299617E-3],"categories":[],"categories_nodes":[],"categories_segments":[],"categories_sizes":[],"default_left":[0,0,0,0,0,0,0,0,0,0,0,0,0,0,0,0,0,0,0,0,0,0,0,0,0,0,0,0,0,0,0,0,0,0,0,0,0,0,0,0,0,0,0,0,0,0,0,0,0,0,0,0,0,0,0],"id":25,"left_children":[1,3,5,7,9,11,13,15,17,19,21,-1,23,25,-1,-1,27,29,31,-1,33,-1,35,37,-1,39,-1,41,43,45,-1,-1,47,-1,-1,-1,-1,49,51,53,-1,-1,-1,-1,-1,-1,-1,-1,-1,-1,-1,-1,-1,-1,-1],"loss_changes":[9.867209E0,2.8830447E0,3.587225E0,1.4896607E0,2.6072E0,1.519494E0,3.3407583E0,2.2632656E0,3.8045652E0,1.6088319E0,2.0300174E0,0E0,1.026164E0,1.6401023E0,0E0,0E0,2.2384949E0,2.2500632E0,1.8876171E0,0E0,1.996131E-1,0E0,1.5754591E0,8.623266E-1,0E0,1.222871E0,0E0,5.887537E-1,1.3438824E0,1.3199196E0,0E0,0E0,8.4751797E-1,0E0,0E0,0E0,0E0,3.175596E0,1.1609297E0,1.7956263E-1,0E0,0E0,0E0,0E0,0E0,0E0,0E0,0E0,0E0,0E0,0E0,0E0,0E0,0E0,0E0],"parents":[2147483647,0,0,1,1,2,2,3,3,4,4,5,5,6,6,7,7,8,8,9,9,10,10,12,12,13,13,16,16,17,17,18,18,20,20,22,22,23,23,25,25,27,27,28,28,29,29,32,32,37,37,38,38,39,39],"right_children":[2,4,6,8,10,12,14,16,18,20,22,-1,24,26,-1,-1,28,30,32,-1,34,-1,36,38,-1,40,-1,42,44,46,-1,-1,48,-1,-1,-1,-1,50,52,54,-1,-1,-1,-1,-1,-1,-1,-1,-1,-1,-1,-1,-1,-1,-1],"split_conditions":[5E0,1E0,6.876E1,6.03E1,5.727E1,2.038E0,3E0,4.034E0,1E0,3E0,6.262E1,-1.8266328E-2,6.07E0,8.189E1,-5.2994262E-2,-5.8483947E-2,4E0,7.446E1,2E0,-7.6440624E-3,2.7E1,-4.991641E-2,1E0,1.6E1,-1.0097112E-2,1E0,-3.0747904E-2,3.872E1,4.131E1,1E0,-2.7164338E-2,7.761692E-3,1E0,4.9370345E-2,1.1610085E-2,3.2734115E-2,-2.3444599E-2,2E0,5.985E1,7.06E1,4.053087E-2,-1.8861591E-3,-3.9808027E-2,-2.5856579E-2,2.3354955E-2,-8.481278E-3,3.5351034E-2,-4.147745E-3,-5.81445E-2,-3.9075416E-2,2.7350167E-2,2.1833433E-2,4.4726904E-2,-1.4816544E-2,6.5299617E-3],"split_indices":[13,7,0,0,0,14,19,14,9,19,0,0,14,0,0,0,13,0,13,0,11,0,18,11,0,9,0,0,0,23,0,0,5,0,0,0,0,5,0,0,0,0,0,0,0,0,0,0,0,0,0,0,0,0,0],"split_type":[0,0,0,0,0,0,0,0,0,0,0,0,0,0,0,0,0,0,0,0,0,0,0,0,0,0,0,0,0,0,0,0,0,0,0,0,0,0,0,0,0,0,0,0,0,0,0,0,0,0,0,0,0,0,0],"sum_hessian":[9.06713E1,4.2844894E1,4.7826405E1,3.2086323E1,1.0758574E1,3.9944107E1,7.8822975E0,1.643958E1,1.5646742E1,5.948504E0,4.8100696E0,1.408175E0,3.853593E1,5.656152E0,2.2261457E0,4.9568458E0,1.1482735E1,9.0440235E0,6.6027184E0,1.9855046E0,3.9629993E0,1.7547415E0,3.055328E0,3.7073097E1,1.4628346E0,4.6343575E0,1.0217947E0,7.015546E0,4.4671893E0,6.9687366E0,2.0752869E0,1.5657496E0,5.0369687E0,2.7314894E0,1.2315099E0,1.6363244E0,1.4190034E0,6.875654E0,3.0197443E1,2.1300774E0,2.5042799E0,1.3299288E0,5.685617E0,1.0895965E0,3.3775928E0,1.9382066E0,5.03053E0,1.0398561E0,3.997113E0,1.5485471E0,5.3271074E0,2.0078377E1,1.0119065E1,1.0451473E0,1.0849302E0],"tree_param":{"num_deleted":"0","num_feature":"24","num_nodes":"55","size_leaf_vector":"1"}},{"base_weights":[4.717614E-2,-5.8542408E-2,6.017607E-1,4.2839038E-1,5.7481475E-2,6.988968E-1,3.353127E-2,-1.7780406E-2,7.625422E-1,-5.5303264E-1,4.3810952E-1,5.619034E-3,8.048418E-1,-9.096961E-1,7.6458915E-3,-3.6770113E-2,5.9176123E-1,4.3382742E-3,4.2210855E-2,-5.814172E-2,-2.4196222E-4,2.8045213E-2,-2.6360897E-2,-4.3068577E-2,3.4188766E-2,4.4771813E-2,-3.41339E-2],"categories":[],"categories_nodes":[],"categories_segments":[],"categories_sizes":[],"default_left":[0,0,0,0,0,0,0,0,0,0,0,0,0,0,0,0,0,0,0,0,0,0,0,0,0,0,0],"id":26,"left_children":[1,-1,3,5,-1,7,9,-1,11,13,15,-1,17,19,21,23,25,-1,-1,-1,-1,-1,-1,-1,-1,-1,-1],"loss_changes":[5.7829533E1,0E0,5.08971E0,4.915201E0,0E0,2.1093397E0,4.9524593E0,0E0,6.286545E-1,1.7155087E0,9.195478E-1,0E0,6.16312E-1,1.1924062E0,1.5721724E0,2.935571E0,4.231744E0,0E0,0E0,0E0,0E0,0E0,0E0,0E0,0E0,0E0,0E0],"parents":[2147483647,0,0,2,2,3,3,5,5,6,6,8,8,9,9,10,10,12,12,13,13,14,14,15,15,16,16],"right_children":[2,-1,4,6,-1,8,10,-1,12,14,16,-1,18,20,22,24,26,-1,-1,-1,-1,-1,-1,-1,-1,-1,-1],"split_conditions":[2E0,-5.8542408E-2,3E0,1E0,5.7481475E-2,3.468E1,4.032E0,-1.7780406E-2,2.04E0,1.6E1,5.045E1,5.619034E-3,1.3E1,8E0,2E0,1E0,1E0,4.3382742E-3,4.2210855E-2,-5.814172E-2,-2.4196222E-4,2.8045213E-2,-2.6360897E-2,-4.3068577E-2,3.4188766E-2,4.4771813E-2,-3.41339E-2],"split_indices":[1,0,1,18,0,0,14,0,14,11,0,0,11,13,7,9,7,0,0,0,0,0,0,0,0,0,0],"split_type":[0,0,0,0,0,0,0,0,0,0,0,0,0,0,0,0,0,0,0,0,0,0,0,0,0,0,0],"sum_hessian":[8.356726E1,2.5797483E1,5.7769775E1,4.5236755E1,1.253302E1,2.6388662E1,1.8848091E1,1.2409368E0,2.5147726E1,7.5438957E0,1.1304195E1,1.7595508E0,2.3388176E1,4.2303557E0,3.3135402E0,2.9494002E0,8.354795E0,1.3823389E0,2.2005836E1,3.0828185E0,1.1475372E0,1.604831E0,1.7087091E0,1.2842474E0,1.6651529E0,6.9872518E0,1.3675431E0],"tree_param":{"num_deleted":"0","num_feature":"24","num_nodes":"27","size_leaf_vector":"1"}},{"base_weights":[-4.3186955E-2,-5.8084976E-2,4.7575137E-1,2.5932512E-1,5.7056654E-2,3.5456297E-1,-2.577913E-1,1.3485795E-1,6.7003524E-1,-6.1103564E-2,2.0816286E-1,4.226841E-1,-5.164344E-1,7.828287E-1,-2.0645363E-2,5.7840675E-1,-1.688522E-2,-1.6934352E-2,3.2217167E-2,-7.411404E-3,-5.7318207E-2,4.906249E-2,1.2703168E-2,3.2549475E-3,4.4654883E-2],"categories":[],"categories_nodes":[],"categories_segments":[],"categories_sizes":[],"default_left":[0,0,0,0,0,0,0,0,0,0,0,0,0,0,0,0,0,0,0,0,0,0,0,0,0],"id":27,"left_children":[1,-1,3,5,-1,7,9,11,13,-1,15,17,19,21,-1,23,-1,-1,-1,-1,-1,-1,-1,-1,-1],"loss_changes":[5.031497E1,0E0,8.2395315E0,2.357761E0,0E0,2.6323223E0,3.730309E0,4.793741E0,2.2622786E0,0E0,1.4221497E0,3.1677432E0,1.6695576E0,1.2953386E0,0E0,5.856664E-1,0E0,0E0,0E0,0E0,0E0,0E0,0E0,0E0,0E0],"parents":[2147483647,0,0,2,2,3,3,5,5,6,6,7,7,8,8,10,10,11,11,12,12,13,13,15,15],"right_children":[2,-1,4,6,-1,8,10,12,14,-1,16,18,20,22,-1,24,-1,-1,-1,-1,-1,-1,-1,-1,-1],"split_conditions":[2E0,-5.8084976E-2,3E0,3E0,5.7056654E-2,2.2E1,1E0,6E0,1E1,-6.1103564E-2,1.9E1,3E0,4.034E0,6.048E1,-2.0645363E-2,7E0,-1.688522E-2,-1.6934352E-2,3.2217167E-2,-7.411404E-3,-5.7318207E-2,4.906249E-2,1.2703168E-2,3.2549475E-3,4.4654883E-2],"split_indices":[1,0,1,17,0,11,22,13,20,0,11,20,14,0,0,13,0,0,0,0,0,0,0,0,0],"split_type":[0,0,0,0,0,0,0,0,0,0,0,0,0,0,0,0,0,0,0,0,0,0,0,0,0],"sum_hessian":[8.473215E1,2.646064E1,5.8271507E1,4.5018307E1,1.3253201E1,3.828219E1,6.736122E0,2.3407755E1,1.4874432E1,1.665886E0,5.070236E0,1.6477047E1,6.930708E0,1.3722317E1,1.1521143E0,2.9855945E0,2.0846417E0,3.5962892E0,1.2880758E1,5.153623E0,1.777085E0,9.355787E0,4.36653E0,1.5933952E0,1.3921992E0],"tree_param":{"num_deleted":"0","num_feature":"24","num_nodes":"25","size_leaf_vector":"1"}},{"base_weights":[1.0440471E-3,-5.7292145E-2,5.263931E-1,3.511651E-1,5.5866897E-2,5.407253E-1,1.0489E-1,-1.5083264E-1,7.4855876E-1,4.937462E-2,-1.3787315E-2,4.7597012E-1,-6.458494E-1,-1.7309835E-2,8.573649E-1,-7.2350675E-1,1.2882333E-1,-7.333259E-4,3.795403E-2,-6.8516545E-2,2.0869946E-2,2.7559318E-3,4.6948742E-2,-9.187537E-3,-4.4565596E-2,-1.9919679E-2,2.247825E-2],"categories":[],"categories_nodes":[],"categories_segments":[],"categories_sizes":[],"default_left":[0,0,0,0,0,0,0,0,0,0,0,0,0,0,0,0,0,0,0,0,0,0,0,0,0,0,0],"id":28,"left_children":[1,-1,3,5,-1,7,9,11,13,-1,15,17,19,-1,21,23,25,-1,-1,-1,-1,-1,-1,-1,-1,-1,-1],"loss_changes":[4.920845E1,0E0,5.407712E0,2.0282044E0,0E0,3.7054524E0,2.1781702E0,2.3578043E0,2.6061268E0,0E0,2.0366988E0,4.961449E-1,3.7429845E0,0E0,1.1216221E0,1.4090931E-1,3.0264065E0,0E0,0E0,0E0,0E0,0E0,0E0,0E0,0E0,0E0,0E0],"parents":[2147483647,0,0,2,2,3,3,5,5,6,6,7,7,8,8,10,10,11,11,12,12,14,14,15,15,16,16],"right_children":[2,-1,4,6,-1,8,10,12,14,-1,16,18,20,-1,22,24,26,-1,-1,-1,-1,-1,-1,-1,-1,-1,-1],"split_conditions":[2E0,-5.7292145E-2,3E0,5.787E1,5.5866897E-2,1E0,1.3E1,1E0,1.3E1,4.937462E-2,1.6E1,3E0,5.316E1,-1.7309835E-2,3.65E1,6.111E1,6.262E1,-7.333259E-4,3.795403E-2,-6.8516545E-2,2.0869946E-2,2.7559318E-3,4.6948742E-2,-9.187537E-3,-4.4565596E-2,-1.9919679E-2,2.247825E-2],"split_indices":[1,0,1,0,0,22,11,5,11,0,11,19,0,0,0,0,0,0,0,0,0,0,0,0,0,0,0],"split_type":[0,0,0,0,0,0,0,0,0,0,0,0,0,0,0,0,0,0,0,0,0,0,0,0,0,0,0],"sum_hessian":[7.967053E1,2.465821E1,5.5012325E1,4.3660328E1,1.1351995E1,2.3995306E1,1.9665024E1,5.6082683E0,1.838704E1,1.4631047E0,1.8201918E1,2.4916961E0,3.116572E0,1.465012E0,1.6922026E1,2.3639798E0,1.5837938E1,1.25864E0,1.2330561E0,1.6818019E0,1.4347701E0,1.7171729E0,1.5204853E1,1.0574969E0,1.3064829E0,5.8991504E0,9.938788E0],"tree_param":{"num_deleted":"0","num_feature":"24","num_nodes":"27","size_leaf_vector":"1"}},{"base_weights":[2.4999797E-2,-5.689506E-2,5.332972E-1,3.5963792E-1,5.5645373E-2,-3.8266543E-1,4.8406944E-1,1.4132209E-1,-6.9882786E-1,-1.45130595E-2,5.360713E-1,2.458787E-2,-1.2463531E-2,-4.451798E-3,-5.4033946E-2,6.885913E-1,1.8722604E-1,4.5610577E-2,1.973057E-2,-3.9225318E-2,2.3026988E-2],"categories":[],"categories_nodes":[],"categories_segments":[],"categories_sizes":[],"default_left":[0,0,0,0,0,0,0,0,0,0,0,0,0,0,0,0,0,0,0,0,0],"id":29,"left_children":[1,-1,3,5,-1,7,9,11,13,-1,15,-1,-1,-1,-1,17,19,-1,-1,-1,-1],"loss_changes":[5.0088146E1,0E0,5.531418E0,4.510022E0,0E0,1.3048803E0,1.788084E0,6.1144567E-1,1.0002513E0,0E0,1.9110851E0,0E0,0E0,0E0,0E0,1.3692789E0,3.8238583E0,0E0,0E0,0E0,0E0],"parents":[2147483647,0,0,2,2,3,3,5,5,6,6,7,7,8,8,10,10,15,15,16,16],"right_children":[2,-1,4,6,-1,8,10,12,14,-1,16,-1,-1,-1,-1,18,20,-1,-1,-1,-1],"split_conditions":[2E0,-5.689506E-2,3E0,3.032E0,5.5645373E-2,1.4E1,3.705E1,1E0,1E0,-1.45130595E-2,6.048E1,2.458787E-2,-1.2463531E-2,-4.451798E-3,-5.4033946E-2,1E0,6.262E1,4.5610577E-2,1.973057E-2,-3.9225318E-2,2.3026988E-2],"split_indices":[1,0,1,14,0,11,0,9,7,0,0,0,0,0,0,23,0,0,0,0,0],"split_type":[0,0,0,0,0,0,0,0,0,0,0,0,0,0,0,0,0,0,0,0,0],"sum_hessian":[8.2710625E1,2.4779816E1,5.793081E1,4.5822296E1,1.2108511E1,6.280471E0,3.9541824E1,2.571552E0,3.708919E0,2.2000713E0,3.7341755E1,1.2189348E0,1.3526171E0,1.9030457E0,1.8058735E0,2.5304401E1,1.2037353E1,1.3177652E1,1.2126749E1,2.23187E0,9.805483E0],"tree_param":{"num_deleted":"0","num_feature":"24","num_nodes":"21","size_leaf_vector":"1"}},{"base_weights":[8.098141E-2,1.454118E-1,-8.306072E-1,-1.0537343E-1,3.585426E-1,-4.5297235E-2,-1.2273115E-2,-3.7359643E-1,3.9161852E-1,4.1067588E-1,-2.9071936E-2,-6.274047E-1,1.6163222E-1,5.5625784E-1,-2.3751758E-2,4.6460566E-1,-2.3361105E-2,-3.5334906E-1,-5.878672E-2,-5.545558E-1,5.187852E-1,8.437275E-1,4.7435753E-2,6.463227E-1,1.3384598E-1,-3.3691473E-2,-2.0686795E-3,-3.878471E-2,-1.0758167E-3,-1.9967768E-2,3.8797233E-2,4.7094338E-2,1.1546612E-2,-2.1817124E-2,3.5588525E-2,4.2653546E-2,2.0397918E-2,-3.5999164E-2,1.6758978E-2],"categories":[],"categories_nodes":[],"categories_segments":[],"categories_sizes":[],"default_left":[0,0,0,0,0,0,0,0,0,0,0,0,0,0,0,0,0,0,0,0,0,0,0,0,0,0,0,0,0,0,0,0,0,0,0,0,0,0,0],"id":30,"left_children":[1,3,5,7,9,-1,-1,11,13,15,-1,17,19,21,-1,23,-1,25,-1,27,29,31,33,35,37,-1,-1,-1,-1,-1,-1,-1,-1,-1,-1,-1,-1,-1,-1],"loss_changes":[4.9886217E0,4.220744E0,2.537942E-2,5.042119E0,2.3230739E0,0E0,0E0,3.41127E0,2.170744E0,2.1527143E0,0E0,2.09897E0,2.495809E0,1.6697543E0,0E0,2.2587223E0,0E0,1.2304982E0,0E0,3.7887836E-1,1.7918731E0,2.2818899E-1,2.0073457E0,8.8018894E-1,2.836532E0,0E0,0E0,0E0,0E0,0E0,0E0,0E0,0E0,0E0,0E0,0E0,0E0,0E0,0E0],"parents":[2147483647,0,0,1,1,2,2,3,3,4,4,7,7,8,8,9,9,11,11,12,12,13,13,15,15,17,17,19,19,20,20,21,21,22,22,23,23,24,24],"right_children":[2,4,6,8,10,-1,-1,12,14,16,-1,18,20,22,-1,24,-1,26,-1,28,30,32,34,36,38,-1,-1,-1,-1,-1,-1,-1,-1,-1,-1,-1,-1,-1,-1],"split_conditions":[7.713E1,5E0,7E0,6.281E1,4E0,-4.5297235E-2,-1.2273115E-2,5E0,4E0,7E0,-2.9071936E-2,5.681E1,3E0,1E0,-2.3751758E-2,1E0,-2.3361105E-2,4.902E1,-5.878672E-2,4.14E0,4.255E1,4.062E0,1E0,2E0,2E0,-3.3691473E-2,-2.0686795E-3,-3.878471E-2,-1.0758167E-3,-1.9967768E-2,3.8797233E-2,4.7094338E-2,1.1546612E-2,-2.1817124E-2,3.5588525E-2,4.2653546E-2,2.0397918E-2,-3.5999164E-2,1.6758978E-2],"split_indices":[0,13,13,0,7,0,0,19,10,10,0,0,13,9,0,18,0,0,0,14,0,14,7,12,5,0,0,0,0,0,0,0,0,0,0,0,0,0,0],"split_type":[0,0,0,0,0,0,0,0,0,0,0,0,0,0,0,0,0,0,0,0,0,0,0,0,0,0,0,0,0,0,0,0,0,0,0,0,0,0,0],"sum_hessian":[8.187943E1,7.7259285E1,4.620143E0,3.5726486E1,4.15328E1,3.607444E0,1.012699E0,2.3364902E1,1.2361585E1,3.988386E1,1.6489388E0,1.5732329E1,7.632572E0,1.0689115E1,1.6724707E0,3.80191E1,1.8647599E0,1.1586032E1,4.1462975E0,2.3558154E0,5.2767572E0,6.4096513E0,4.2794633E0,2.3922298E1,1.4096802E1,5.142974E0,6.443058E0,1.3433008E0,1.0125145E0,1.0335846E0,4.2431726E0,5.061805E0,1.3478466E0,2.6748137E0,1.6046495E0,1.1429732E1,1.2492566E1,2.1982484E0,1.1898554E1],"tree_param":{"num_deleted":"0","num_feature":"24","num_nodes":"39","size_leaf_vector":"1"}},{"base_weights":[3.1611312E-2,-5.610012E-2,5.350231E-1,3.3270338E-1,5.5394053E-2,5.857727E-1,-1.9186832E-2,9.527007E-2,7.9203784E-1,2.2479866E-1,-9.9213195E-1,-2.2160779E-1,5.9210455E-1,9.03394E-1,-4.793512E-3,6.106851E-1,-3.9565107E-1,-5.7301022E-2,-1.5295078E-2,-3.7140917E-2,3.034072E-2,4.110244E-2,5.718842E-3,1.0255145E-2,4.9239933E-2,-7.151974E-3,3.9601244E-2,-4.613808E-2,1.4323211E-2],"categories":[],"categories_nodes":[],"categories_segments":[],"categories_sizes":[],"default_left":[0,0,0,0,0,0,0,0,0,0,0,0,0,0,0,0,0,0,0,0,0,0,0,0,0,0,0,0,0],"id":31,"left_children":[1,-1,3,5,-1,7,9,11,13,15,17,19,21,23,-1,25,27,-1,-1,-1,-1,-1,-1,-1,-1,-1,-1,-1,-1],"loss_changes":[4.681482E1,0E0,6.1310062E0,3.8290873E0,0E0,2.4507675E0,4.7102175E0,1.4738911E0,1.8110514E0,4.055163E0,6.9155455E-2,3.0133424E0,3.007245E-1,6.843958E-1,0E0,1.5092738E0,2.6785598E0,0E0,0E0,0E0,0E0,0E0,0E0,0E0,0E0,0E0,0E0,0E0,0E0],"parents":[2147483647,0,0,2,2,3,3,5,5,6,6,7,7,8,8,9,9,10,10,11,11,12,12,13,13,15,15,16,16],"right_children":[2,-1,4,6,-1,8,10,12,14,16,18,20,22,24,-1,26,28,-1,-1,-1,-1,-1,-1,-1,-1,-1,-1,-1,-1],"split_conditions":[2E0,-5.610012E-2,3E0,1E0,5.5394053E-2,4.998E1,3E0,3E0,3E0,6.011E1,8E0,5E0,2E0,2E0,-4.793512E-3,4E0,2.1E1,-5.7301022E-2,-1.5295078E-2,-3.7140917E-2,3.034072E-2,4.110244E-2,5.718842E-3,1.0255145E-2,4.9239933E-2,-7.151974E-3,3.9601244E-2,-4.613808E-2,1.4323211E-2],"split_indices":[1,0,1,18,0,0,17,10,22,0,20,20,20,19,0,13,11,0,0,0,0,0,0,0,0,0,0,0,0],"split_type":[0,0,0,0,0,0,0,0,0,0,0,0,0,0,0,0,0,0,0,0,0,0,0,0,0,0,0,0,0],"sum_hessian":[7.857831E1,2.349913E1,5.5079174E1,4.1871826E1,1.3207351E1,2.3969212E1,1.7902615E1,7.5284023E0,1.644081E1,1.4928055E1,2.9745588E0,4.9349093E0,2.5934932E0,1.4593179E1,1.8476301E0,9.213494E0,5.7145605E0,1.8824036E0,1.0921552E0,3.0925393E0,1.8423699E0,1.2642334E0,1.3292599E0,1.891072E0,1.2702106E1,1.8277601E0,7.3857346E0,3.0245326E0,2.6900282E0],"tree_param":{"num_deleted":"0","num_feature":"24","num_nodes":"29","size_leaf_vector":"1"}},{"base_weights":[-5.3820126E-2,-5.552378E-2,3.7767413E-1,2.0146582E-1,5.361241E-2,-1.0585311E-1,4.4026977E-1,1.8858148E-1,-4.1519064E-1,-2.0739634E-2,5.09459E-1,-3.3873233E-1,6.577708E-1,5.1523656E-1,-9.71256E-1,7.336969E-1,7.85338E-2,1.6154077E-2,-3.570382E-2,-4.1970197E-5,4.7655694E-2,-3.7940198E-3,3.7362427E-2,-4.599025E-3,-5.7772566E-2,1.7765349E-2,4.6002466E-2,1.9414155E-2,-5.7104833E-2],"categories":[],"categories_nodes":[],"categories_segments":[],"categories_sizes":[],"default_left":[0,0,0,0,0,0,0,0,0,0,0,0,0,0,0,0,0,0,0,0,0,0,0,0,0,0,0,0,0],"id":32,"left_children":[1,-1,3,5,-1,7,9,11,13,-1,15,17,19,21,23,25,27,-1,-1,-1,-1,-1,-1,-1,-1,-1,-1,-1,-1],"loss_changes":[3.558148E1,0E0,6.5772057E0,3.3861308E0,0E0,1.9640092E0,1.7377057E0,3.0173466E0,5.8857207E0,0E0,2.29221E0,1.7157493E0,1.2295423E0,6.8031955E-1,1.0050321E0,7.925005E-1,4.0137424E0,0E0,0E0,0E0,0E0,0E0,0E0,0E0,0E0,0E0,0E0,0E0,0E0],"parents":[2147483647,0,0,2,2,3,3,5,5,6,6,7,7,8,8,10,10,11,11,12,12,13,13,14,14,15,15,16,16],"right_children":[2,-1,4,6,-1,8,10,12,14,-1,16,18,20,22,24,26,28,-1,-1,-1,-1,-1,-1,-1,-1,-1,-1,-1,-1],"split_conditions":[2E0,-5.552378E-2,3E0,3E0,5.361241E-2,1E0,3.705E1,5.798E1,5.038E1,-2.0739634E-2,5.958E1,4.255E1,1E0,1.6E1,1.4E1,5.037E1,3E0,1.6154077E-2,-3.570382E-2,-4.1970197E-5,4.7655694E-2,-3.7940198E-3,3.7362427E-2,-4.599025E-3,-5.7772566E-2,1.7765349E-2,4.6002466E-2,1.9414155E-2,-5.7104833E-2],"split_indices":[1,0,1,4,0,18,0,0,0,0,0,0,22,11,11,0,22,0,0,0,0,0,0,0,0,0,0,0,0],"split_type":[0,0,0,0,0,0,0,0,0,0,0,0,0,0,0,0,0,0,0,0,0,0,0,0,0,0,0,0,0],"sum_hessian":[7.6119835E1,2.1614956E1,5.450488E1,4.450448E1,1.0000401E1,1.9703983E1,2.4800495E1,1.0295172E1,9.408812E0,1.4826306E0,2.3317863E1,4.97825E0,5.3169217E0,3.5471036E0,5.861708E0,1.4874897E1,8.442967E0,1.8520024E0,3.126248E0,1.9548328E0,3.3620887E0,1.1894882E0,2.3576155E0,1.2749523E0,4.5867558E0,5.8675127E0,9.007384E0,7.2779913E0,1.1649759E0],"tree_param":{"num_deleted":"0","num_feature":"24","num_nodes":"29","size_leaf_vector":"1"}},{"base_weights":[6.9078855E-2,-5.4917432E-2,5.372753E-1,3.8643554E-1,5.32824E-2,6.3250303E-1,-5.343569E-3,-2.714068E-2,7.334937E-1,1.4010169E-1,-4.7190595E-2,1.9577868E-1,9.685457E-1,-6.168349E-1,4.1450688E-1,3.7413772E-2,-1.726604E-2,5.6771833E-2,1.9696811E-2,7.4275197E-3,-4.8972063E-2,3.5052743E-2,-5.117498E-3],"categories":[],"categories_nodes":[],"categories_segments":[],"categories_sizes":[],"default_left":[0,0,0,0,0,0,0,0,0,0,0,0,0,0,0,0,0,0,0,0,0,0,0],"id":33,"left_children":[1,-1,3,5,-1,7,9,-1,11,13,-1,15,17,19,21,-1,-1,-1,-1,-1,-1,-1,-1],"loss_changes":[4.179663E1,0E0,3.9302654E0,4.240373E0,0E0,3.6033707E0,2.5818808E0,0E0,3.0070858E0,3.6640096E0,0E0,2.93299E0,1.2161179E0,1.4687392E0,1.944001E0,0E0,0E0,0E0,0E0,0E0,0E0,0E0,0E0],"parents":[2147483647,0,0,2,2,3,3,5,5,6,6,8,8,9,9,11,11,12,12,13,13,14,14],"right_children":[2,-1,4,6,-1,8,10,-1,12,14,-1,16,18,20,22,-1,-1,-1,-1,-1,-1,-1,-1],"split_conditions":[2E0,-5.4917432E-2,3E0,5.958E1,5.32824E-2,1.3E1,3E0,-2.714068E-2,4.71E1,1.6E1,-4.7190595E-2,2E0,2E0,1E0,1E0,3.7413772E-2,-1.726604E-2,5.6771833E-2,1.9696811E-2,7.4275197E-3,-4.8972063E-2,3.5052743E-2,-5.117498E-3],"split_indices":[1,0,1,0,0,11,10,0,0,11,0,19,21,18,9,0,0,0,0,0,0,0,0],"split_type":[0,0,0,0,0,0,0,0,0,0,0,0,0,0,0,0,0,0,0,0,0,0,0],"sum_hessian":[7.438897E1,2.0908535E1,5.348044E1,4.2950344E1,1.0530093E1,2.6003624E1,1.694672E1,1.7114213E0,2.4292204E1,1.5409278E1,1.5374411E0,7.94646E0,1.6345743E1,3.767865E0,1.1641414E1,3.7423773E0,4.2040825E0,1.1910434E1,4.43531E0,1.4009925E0,2.3668723E0,7.260034E0,4.381379E0],"tree_param":{"num_deleted":"0","num_feature":"24","num_nodes":"23","size_leaf_vector":"1"}},{"base_weights":[3.4685265E-2,-5.4534473E-2,5.0618464E-1,-1.22495614E-1,6.1482674E-1,-6.7245364E-1,7.1276814E-1,4.8818913E-1,5.18453E-2,-4.617824E-2,-1.0261907E-2,4.3303426E-2,1.3273078E-2,5.455708E-1,-2.581196E-2,8.0852264E-1,4.2299193E-1,4.6552263E-2,3.4138605E-3,-1.2742129E-2,2.457854E-2],"categories":[],"categories_nodes":[],"categories_segments":[],"categories_sizes":[],"default_left":[0,0,0,0,0,0,0,0,0,0,0,0,0,0,0,0,0,0,0,0,0],"id":34,"left_children":[1,-1,3,5,7,9,11,13,-1,-1,-1,-1,-1,15,-1,17,19,-1,-1,-1,-1],"loss_changes":[3.8238403E1,0E0,3.5406551E0,4.2964406E0,1.814991E0,4.5867538E-1,2.96067E-2,2.315836E0,0E0,0E0,0E0,0E0,0E0,7.497988E-1,0E0,8.1370544E-1,1.2967033E0,0E0,0E0,0E0,0E0],"parents":[2147483647,0,0,2,2,3,3,4,4,5,5,6,6,7,7,13,13,15,15,16,16],"right_children":[2,-1,4,6,8,10,12,14,-1,-1,-1,-1,-1,16,-1,18,20,-1,-1,-1,-1],"split_conditions":[2E0,-5.4534473E-2,3.032E0,7E0,3E0,2E0,5E0,7E0,5.18453E-2,-4.617824E-2,-1.0261907E-2,4.3303426E-2,1.3273078E-2,2E0,-2.581196E-2,1E0,1E0,4.6552263E-2,3.4138605E-3,-1.2742129E-2,2.457854E-2],"split_indices":[1,0,14,13,1,4,20,10,0,0,0,0,0,19,0,2,3,0,0,0,0],"split_type":[0,0,0,0,0,0,0,0,0,0,0,0,0,0,0,0,0,0,0,0,0],"sum_hessian":[7.002404E1,2.0287823E1,4.9736214E1,7.3096857E0,4.242653E1,4.525142E0,2.7845433E0,3.429387E1,8.132659E0,2.3079574E0,2.217185E0,1.3765787E0,1.4079646E0,3.2872726E1,1.4211419E0,8.672611E0,2.4200115E1,7.2198563E0,1.4527551E0,1.9739091E0,2.2226206E1],"tree_param":{"num_deleted":"0","num_feature":"24","num_nodes":"21","size_leaf_vector":"1"}},{"base_weights":[3.0971626E-2,-1.4382966E-1,5.1411664E-1,9.724106E-2,-2.6660508E-1,6.2814337E-1,-2.4337348E-1,-1.5369916E-1,4.5160848E-1,-6.60592E-1,-7.114065E-2,-2.3339171E-2,7.2342837E-1,-2.4698863E-2,7.447835E-3,3.323312E-1,-6.16521E-1,7.7541566E-1,-2.8046012E-2,-2.1751514E-1,-1.00206E0,-4.1417918E-1,2.1945488E-1,3.0878058E-1,8.161759E-1,-7.801812E-2,4.5490455E-2,-4.6301037E-2,-7.7592425E-2,1.375595E-2,4.350337E-2,-4.001336E-2,9.735825E-2,-2.1676326E-1,-6.6247135E-2,-7.1851313E-1,3.2421586E-1,3.9873618E-1,-3.563496E-2,3.129293E-2,-1.190434E-2,8.812229E-1,1.6492119E-2,2.3746407E-2,-4.799437E-2,-2.3227714E-2,1.9524237E-2,-2.1979759E-2,2.0387314E-2,-3.7534468E-2,1.9393846E-2,1.6173027E-2,-4.5654878E-2,3.185157E-2,-7.556268E-3,3.7224863E-2,-7.220363E-3,4.7384303E-2,1.6503092E-2],"categories":[],"categories_nodes":[],"categories_segments":[],"categories_sizes":[],"default_left":[0,0,0,0,0,0,0,0,0,0,0,0,0,0,0,0,0,0,0,0,0,0,0,0,0,0,0,0,0,0,0,0,0,0,0,0,0,0,0,0,0,0,0,0,0,0,0,0,0,0,0,0,0,0,0,0,0,0,0],"id":35,"left_children":[1,3,5,7,9,11,13,15,17,19,21,-1,23,-1,-1,25,27,29,-1,31,33,35,37,39,41,43,-1,-1,45,-1,-1,-1,47,49,-1,51,53,55,-1,-1,-1,57,-1,-1,-1,-1,-1,-1,-1,-1,-1,-1,-1,-1,-1,-1,-1,-1,-1],"loss_changes":[6.4835844E0,1.6985605E0,1.9133582E0,1.830326E0,2.8570971E0,2.215063E0,4.066364E-1,2.9804852E0,3.2097447E0,1.6557279E0,2.7152286E0,0E0,3.9969063E-1,0E0,0E0,1.6511621E0,1.040798E0,8.416319E-2,0E0,1.3013352E0,1.4159088E0,3.023954E0,2.7752671E0,9.6505874E-1,1.2817669E-1,2.8058908E0,0E0,0E0,8.1984985E-1,0E0,0E0,0E0,1.0492485E0,1.3089509E0,0E0,2.1416044E0,7.3773813E-1,2.575732E0,0E0,0E0,0E0,9.3081474E-2,0E0,0E0,0E0,0E0,0E0,0E0,0E0,0E0,0E0,0E0,0E0,0E0,0E0,0E0,0E0,0E0,0E0],"parents":[2147483647,0,0,1,1,2,2,3,3,4,4,5,5,6,6,7,7,8,8,9,9,10,10,12,12,15,15,16,16,17,17,19,19,20,20,21,21,22,22,23,23,24,24,25,25,28,28,32,32,33,33,35,35,36,36,37,37,41,41],"right_children":[2,4,6,8,10,12,14,16,18,20,22,-1,24,-1,-1,26,28,30,-1,32,34,36,38,40,42,44,-1,-1,46,-1,-1,-1,48,50,-1,52,54,56,-1,-1,-1,58,-1,-1,-1,-1,-1,-1,-1,-1,-1,-1,-1,-1,-1,-1,-1,-1,-1],"split_conditions":[7E0,5.136E1,6.907E1,4.825E1,6.004E1,4.083E1,9E0,1E0,4.054E0,1E0,1E0,-2.3339171E-2,4.02E0,-2.4698863E-2,7.447835E-3,3E0,4E0,3.038E0,-2.8046012E-2,4E0,3.042E0,3.4E1,7.446E1,3.028E0,1E0,5.044E0,4.5490455E-2,-4.6301037E-2,3E0,1.375595E-2,4.350337E-2,-4.001336E-2,3E0,3.032E0,-6.6247135E-2,6.062E1,5.074E0,1E0,-3.563496E-2,3.129293E-2,-1.190434E-2,2E0,1.6492119E-2,2.3746407E-2,-4.799437E-2,-2.3227714E-2,1.9524237E-2,-2.1979759E-2,2.0387314E-2,-3.7534468E-2,1.9393846E-2,1.6173027E-2,-4.5654878E-2,3.185157E-2,-7.556268E-3,3.7224863E-2,-7.220363E-3,4.7384303E-2,1.6503092E-2],"split_indices":[13,0,0,0,0,0,13,2,14,23,23,0,14,0,0,10,13,14,0,13,14,11,0,14,6,14,0,0,19,0,0,0,4,14,0,0,14,9,0,0,0,7,0,0,0,0,0,0,0,0,0,0,0,0,0,0,0,0,0],"split_type":[0,0,0,0,0,0,0,0,0,0,0,0,0,0,0,0,0,0,0,0,0,0,0,0,0,0,0,0,0,0,0,0,0,0,0,0,0,0,0,0,0,0,0,0,0,0,0,0,0,0,0,0,0,0,0,0,0,0,0],"sum_hessian":[7.48947E1,5.551261E1,1.938209E1,1.880223E1,3.671038E1,1.699461E1,2.3874805E0,1.1338972E1,7.4632587E0,1.1384225E1,2.5326157E1,1.048412E0,1.59461975E1,1.2987859E0,1.0886945E0,5.668338E0,5.6706343E0,5.832274E0,1.6309848E0,5.667403E0,5.7168217E0,1.1419973E1,1.3906182E1,3.706181E0,1.2240016E1,3.8192909E0,1.8490468E0,3.145787E0,2.5248473E0,1.5493877E0,4.2828865E0,1.4472858E0,4.220117E0,2.1526372E0,3.5641844E0,8.105973E0,3.3139997E0,1.2142966E1,1.763216E0,2.2545388E0,1.4516424E0,1.0079864E1,2.1601527E0,2.6310396E0,1.1882513E0,1.3863066E0,1.1385406E0,1.3933778E0,2.8267393E0,1.0148921E0,1.1377453E0,1.1713322E0,6.9346414E0,1.7935395E0,1.5204601E0,7.193145E0,4.9498215E0,8.353144E0,1.7267196E0],"tree_param":{"num_deleted":"0","num_feature":"24","num_nodes":"59","size_leaf_vector":"1"}},{"base_weights":[-4.580747E-2,-2.2639795E-1,4.5369336E-1,-5.0026387E-1,-6.0229808E-2,6.873784E-1,-3.642198E-1,-5.0727736E-2,-3.4510466E-1,-5.3853627E-2,1.3079918E-2,7.511568E-1,-6.218785E-4,-4.4184446E-2,1.7241018E-1,-1.9611597E-1,-7.279208E-1,1.3053176E-1,-5.4166704E-1,2.4982014E-1,8.670217E-1,-3.767477E-3,1.7693177E-2,-4.7786644E-1,3.195031E-1,-4.1167025E-2,-1.13523295E-2,6.21943E-1,-7.3453984E-3,-9.916668E-2,-4.567813E-2,-1.820778E-2,3.6809567E-2,4.9812008E-2,4.115496E-1,-3.483087E-2,-5.765011E-3,-1.4877522E-2,2.9936647E-2,1.2496103E-2,3.4962032E-2,-1.0674158E-2,1.50759695E-2,-2.9007545E-2,2.1235825E-2,8.0295216E-4,2.9494515E-2],"categories":[],"categories_nodes":[],"categories_segments":[],"categories_sizes":[],"default_left":[0,0,0,0,0,0,0,0,0,0,0,0,0,0,0,0,0,0,0,0,0,0,0,0,0,0,0,0,0,0,0,0,0,0,0,0,0,0,0,0,0,0,0,0,0,0,0],"id":36,"left_children":[1,3,5,7,9,11,13,-1,15,-1,17,19,-1,-1,21,23,25,27,29,31,33,-1,-1,35,37,-1,-1,39,41,43,-1,-1,-1,-1,45,-1,-1,-1,-1,-1,-1,-1,-1,-1,-1,-1,-1],"loss_changes":[6.5607085E0,2.39311E0,3.9475443E0,1.2435193E0,2.5692961E0,6.9630384E-1,1.5328248E0,0E0,8.187449E-1,0E0,2.2182848E0,6.037111E-1,0E0,0E0,1.7378815E-1,2.114472E0,2.1160603E-2,1.9021821E0,8.891058E-1,1.4792433E0,2.4130344E-1,0E0,0E0,6.4403343E-1,1.1035591E0,0E0,0E0,2.0403862E-3,1.5197837E0,1.2140919E0,0E0,0E0,0E0,0E0,2.8320265E-1,0E0,0E0,0E0,0E0,0E0,0E0,0E0,0E0,0E0,0E0,0E0,0E0],"parents":[2147483647,0,0,1,1,2,2,3,3,4,4,5,5,6,6,8,8,10,10,11,11,14,14,15,15,16,16,17,17,18,18,19,19,20,20,23,23,24,24,27,27,28,28,29,29,34,34],"right_children":[2,4,6,8,10,12,14,-1,16,-1,18,20,-1,-1,22,24,26,28,30,32,34,-1,-1,36,38,-1,-1,40,42,44,-1,-1,-1,-1,46,-1,-1,-1,-1,-1,-1,-1,-1,-1,-1,-1,-1],"split_conditions":[7E0,4E0,6.569E1,3E0,3.94E1,6E0,7E0,-5.0727736E-2,5.046E0,-5.3853627E-2,9E0,1E0,-6.218785E-4,-4.4184446E-2,1E0,3E0,6.046E0,2E0,1E0,9E0,2E0,-3.767477E-3,1.7693177E-2,6.281E1,4.05E0,-4.1167025E-2,-1.13523295E-2,5E0,1E0,5E0,-4.567813E-2,-1.820778E-2,3.6809567E-2,4.9812008E-2,4.71E1,-3.483087E-2,-5.765011E-3,-1.4877522E-2,2.9936647E-2,1.2496103E-2,3.4962032E-2,-1.0674158E-2,1.50759695E-2,-2.9007545E-2,2.1235825E-2,8.0295216E-4,2.9494515E-2],"split_indices":[13,13,0,20,0,10,20,0,14,0,20,3,0,0,22,4,14,19,18,13,7,0,0,0,14,0,0,13,7,13,0,0,0,0,0,0,0,0,0,0,0,0,0,0,0,0,0],"split_type":[0,0,0,0,0,0,0,0,0,0,0,0,0,0,0,0,0,0,0,0,0,0,0,0,0,0,0,0,0,0,0,0,0,0,0,0,0,0,0,0,0,0,0,0,0,0,0],"sum_hessian":[7.059234E1,5.2248917E1,1.834342E1,1.897128E1,3.3277637E1,1.43912945E1,3.952126E0,3.113262E0,1.5858017E1,1.3170743E0,3.1960564E1,1.3122042E1,1.269253E0,1.6795492E0,2.2725768E0,1.2503904E1,3.3541121E0,2.700725E1,4.953314E0,3.055839E0,1.0066203E1,1.2079561E0,1.0646207E0,8.1329975E0,4.3709073E0,2.276599E0,1.0775132E0,5.148064E0,2.1859184E1,2.84036E0,2.1129537E0,1.4618005E0,1.5940385E0,6.916661E0,3.149542E0,4.4978867E0,3.6351104E0,1.3412801E0,3.029627E0,1.6138948E0,3.5341692E0,1.3294913E1,8.564272E0,1.4248139E0,1.4155461E0,1.3176194E0,1.8319225E0],"tree_param":{"num_deleted":"0","num_feature":"24","num_nodes":"47","size_leaf_vector":"1"}},{"base_weights":[5.616859E-2,-5.377972E-2,4.664371E-1,2.9748195E-1,5.259754E-2,9.88164E-2,5.847201E-1,4.076773E-1,-2.1400118E-1,-1.4919634E-1,7.66427E-1,7.522365E-1,-3.3721395E-2,2.0173274E-1,-7.8301954E-1,2.7212605E-2,-4.1346516E-2,3.0455586E-1,4.7419194E-2,2.1607594E-3,4.964082E-2,-1.593494E-2,3.667776E-2,2.098746E-2,-2.7967155E-2,1.4395872E-2,-5.3243745E-2,3.8399067E-2,-3.0802736E-2],"categories":[],"categories_nodes":[],"categories_segments":[],"categories_sizes":[],"default_left":[0,0,0,0,0,0,0,0,0,0,0,0,0,0,0,0,0,0,0,0,0,0,0,0,0,0,0,0,0],"id":37,"left_children":[1,-1,3,5,-1,7,9,11,13,15,17,19,21,23,25,-1,-1,27,-1,-1,-1,-1,-1,-1,-1,-1,-1,-1,-1],"loss_changes":[3.3538994E1,0E0,4.9220324E0,2.3652904E0,0E0,2.6287072E0,2.4024448E0,2.090749E0,3.4045858E0,2.443689E0,8.806381E-1,1.2653508E0,1.7448233E0,1.6825712E0,2.1173477E0,0E0,0E0,2.7794287E0,0E0,0E0,0E0,0E0,0E0,0E0,0E0,0E0,0E0,0E0,0E0],"parents":[2147483647,0,0,2,2,3,3,5,5,6,6,7,7,8,8,9,9,10,10,11,11,12,12,13,13,14,14,17,17],"right_children":[2,-1,4,6,-1,8,10,12,14,16,18,20,22,24,26,-1,-1,28,-1,-1,-1,-1,-1,-1,-1,-1,-1,-1,-1],"split_conditions":[2E0,-5.377972E-2,3E0,2.2E1,5.259754E-2,1E0,4.71E1,1.8E1,5.727E1,2E0,3E0,5.311E1,1E0,5.02E0,3E0,2.7212605E-2,-4.1346516E-2,4.054E0,4.7419194E-2,2.1607594E-3,4.964082E-2,-1.593494E-2,3.667776E-2,2.098746E-2,-2.7967155E-2,1.4395872E-2,-5.3243745E-2,3.8399067E-2,-3.0802736E-2],"split_indices":[1,0,1,11,0,18,0,11,0,19,4,0,7,14,13,0,0,14,0,0,0,0,0,0,0,0,0,0,0],"split_type":[0,0,0,0,0,0,0,0,0,0,0,0,0,0,0,0,0,0,0,0,0,0,0,0,0,0,0,0,0],"sum_hessian":[7.015097E1,1.8232708E1,5.1918262E1,4.1462082E1,1.045618E1,2.5304491E1,1.615759E1,1.2580185E1,1.2724306E1,3.2420058E0,1.29155855E1,6.6696186E0,5.9105663E0,7.725445E0,4.9988613E0,1.6997732E0,1.5422326E0,4.405823E0,8.509763E0,1.9885942E0,4.681024E0,4.7361345E0,1.1744314E0,6.35382E0,1.3716251E0,1.0370353E0,3.9618258E0,3.040872E0,1.3649513E0],"tree_param":{"num_deleted":"0","num_feature":"24","num_nodes":"29","size_leaf_vector":"1"}},{"base_weights":[9.194857E-3,-5.344531E-2,4.120552E-1,2.5902936E-1,5.1369097E-2,3.711229E-1,-4.8518014E-1,-3.3182155E-2,4.4599414E-1,-4.9240068E-2,-8.075537E-2,5.399529E-1,-1.6445659E-1,-3.0205196E-2,2.7635768E-2,3.5951093E-2,1.2783672E-2,-2.4682714E-2,3.2101694E-2],"categories":[],"categories_nodes":[],"categories_segments":[],"categories_sizes":[],"default_left":[0,0,0,0,0,0,0,0,0,0,0,0,0,0,0,0,0,0,0],"id":38,"left_children":[1,-1,3,5,-1,7,9,-1,11,-1,13,15,17,-1,-1,-1,-1,-1,-1],"loss_changes":[3.0639214E1,0E0,4.5679207E0,3.7213442E0,0E0,3.1981897E0,1.1308813E0,0E0,2.1267457E0,0E0,1.7925808E0,1.3955097E0,1.7787209E0,0E0,0E0,0E0,0E0,0E0,0E0],"parents":[2147483647,0,0,2,2,3,3,5,5,6,6,8,8,10,10,11,11,12,12],"right_children":[2,-1,4,6,-1,8,10,-1,12,-1,14,16,18,-1,-1,-1,-1,-1,-1],"split_conditions":[2E0,-5.344531E-2,3E0,3E0,5.1369097E-2,3.705E1,3.054E0,-3.3182155E-2,9E0,-4.9240068E-2,5.46E1,5.74E1,5.038E0,-3.0205196E-2,2.7635768E-2,3.5951093E-2,1.2783672E-2,-2.4682714E-2,3.2101694E-2],"split_indices":[1,0,1,21,0,0,14,0,20,0,0,0,14,0,0,0,0,0,0],"split_type":[0,0,0,0,0,0,0,0,0,0,0,0,0,0,0,0,0,0,0],"sum_hessian":[6.853047E1,1.8192348E1,5.0338127E1,4.1450695E1,8.88743E0,3.6460327E1,4.99037E0,1.9295118E0,3.4530815E1,1.590464E0,3.399906E0,3.002495E1,4.505864E0,1.8871639E0,1.512742E0,1.7483028E1,1.2541923E1,3.475226E0,1.0306383E0],"tree_param":{"num_deleted":"0","num_feature":"24","num_nodes":"19","size_leaf_vector":"1"}},{"base_weights":[4.2751282E-2,-5.267338E-2,4.1190684E-1,2.4714237E-1,5.137371E-2,7.371183E-2,5.262941E-1,2.1349649E-1,-5.2525908E-2,6.758362E-1,-2.82973E-2,4.2694986E-2,9.493735E-2,-8.310008E-3,7.884639E-1,1.504477E-2,-1.7428242E-2,1.4985526E-2,5.0257463E-2],"categories":[],"categories_nodes":[],"categories_segments":[],"categories_sizes":[],"default_left":[0,0,0,0,0,0,0,0,0,0,0,0,0,0,0,0,0,0,0],"id":39,"left_children":[1,-1,3,5,-1,7,9,11,-1,13,-1,-1,15,-1,17,-1,-1,-1,-1],"loss_changes":[2.7145412E1,0E0,4.8271513E0,1.9382365E0,0E0,4.3652925E0,2.9118633E0,1.7614745E0,0E0,1.4660206E0,0E0,0E0,2.0780587E0,0E0,1.0320983E0,0E0,0E0,0E0,0E0],"parents":[2147483647,0,0,2,2,3,3,5,5,6,6,7,7,9,9,12,12,14,14],"right_children":[2,-1,4,6,-1,8,10,12,-1,14,-1,-1,16,-1,18,-1,-1,-1,-1],"split_conditions":[2E0,-5.267338E-2,3E0,2.3E1,5.137371E-2,2E0,6E0,3E0,-5.2525908E-2,3.054E0,-2.82973E-2,4.2694986E-2,5.958E1,-8.310008E-3,5E0,1.504477E-2,-1.7428242E-2,1.4985526E-2,5.0257463E-2],"split_indices":[1,0,1,11,0,10,10,13,0,14,0,0,0,0,13,0,0,0,0],"split_type":[0,0,0,0,0,0,0,0,0,0,0,0,0,0,0,0,0,0,0],"sum_hessian":[6.500719E1,1.5909553E1,4.9097637E1,3.98364E1,9.261235E0,2.535067E1,1.4485731E1,2.3267702E1,2.0829673E0,1.3076609E1,1.4091225E0,2.6658216E0,2.0601881E1,1.4866126E0,1.1589996E1,1.4288151E1,6.31373E0,4.29205E0,7.297947E0],"tree_param":{"num_deleted":"0","num_feature":"24","num_nodes":"19","size_leaf_vector":"1"}},{"base_weights":[6.0215022E-2,-5.2520525E-2,4.564809E-1,3.049737E-1,5.080936E-2,-3.295534E-2,3.7082157E-1,4.1028124E-1,-1.9904954E-2,1.9585599E-1,6.4451873E-1,-4.4276856E-2,1.5059124E-2,3.7559964E-2,2.2984534E-3],"categories":[],"categories_nodes":[],"categories_segments":[],"categories_sizes":[],"default_left":[0,0,0,0,0,0,0,0,0,0,0,0,0,0,0],"id":40,"left_children":[1,-1,3,5,-1,-1,7,9,-1,11,13,-1,-1,-1,-1],"loss_changes":[2.9365398E1,0E0,3.8513432E0,2.7866952E0,0E0,0E0,1.3201423E0,1.7199845E0,0E0,2.616117E0,1.0593328E0,0E0,0E0,0E0,0E0],"parents":[2147483647,0,0,2,2,3,3,6,6,7,7,9,9,10,10],"right_children":[2,-1,4,6,-1,-1,8,10,-1,12,14,-1,-1,-1,-1],"split_conditions":[2E0,-5.2520525E-2,3E0,3.705E1,5.080936E-2,-3.295534E-2,5E0,3E0,-1.9904954E-2,3E0,3E0,-4.4276856E-2,1.5059124E-2,3.7559964E-2,2.2984534E-3],"split_indices":[1,0,1,0,0,0,10,4,0,20,22,0,0,0,0],"split_type":[0,0,0,0,0,0,0,0,0,0,0,0,0,0,0],"sum_hessian":[6.463442E1,1.6562752E1,4.8071667E1,3.9046917E1,9.02475E0,1.9204227E0,3.7126495E1,3.575788E1,1.368613E0,1.9627058E1,1.6130823E1,1.0845349E0,1.8542522E1,1.3474253E1,2.656571E0],"tree_param":{"num_deleted":"0","num_feature":"24","num_nodes":"15","size_leaf_vector":"1"}},{"base_weights":[4.8894268E-2,-7.120711E-2,3.9772108E-1,-7.002097E-1,2.3853164E-2,4.894264E-1,-1.9038325E-2,-5.1502477E-2,-8.916519E-2,9.855067E-2,-3.5995176E-1,2.0942767E-1,6.7635727E-1,-1.5598773E-2,1.06072305E-2,-1.1293466E-1,2.203E-1,-4.296167E-2,7.609497E-2,4.7559994E-1,-3.247009E-2,7.940913E-3,3.9992284E-2,-2.686645E-1,3.318974E-2,3.9783955E-1,-4.0424788E-1,-3.9593828E-1,2.874857E-2,6.589734E-1,-1.3219478E-3,-1.1419483E-3,-5.159784E-2,2.5276054E-2,-1.234556E-2,1.07710315E-2,-3.9910704E-2,-2.9220272E-2,1.917094E-4,4.2275067E-2,1.5362776E-2],"categories":[],"categories_nodes":[],"categories_segments":[],"categories_sizes":[],"default_left":[0,0,0,0,0,0,0,0,0,0,0,0,0,0,0,0,0,0,0,0,0,0,0,0,0,0,0,0,0,0,0,0,0,0,0,0,0,0,0,0,0],"id":41,"left_children":[1,3,5,7,9,11,-1,-1,13,15,17,19,21,-1,-1,23,25,-1,27,29,-1,-1,-1,31,-1,33,35,37,-1,39,-1,-1,-1,-1,-1,-1,-1,-1,-1,-1,-1],"loss_changes":[2.8654928E0,3.0796092E0,1.4354694E0,1.2702372E0,1.3389763E0,7.0052624E-1,0E0,0E0,2.9873434E-1,1.0250595E0,1.7248213E0,2.1125135E0,4.6095514E-1,0E0,0E0,1.9749844E0,2.9319239E0,0E0,1.4021223E0,6.250775E-1,0E0,0E0,0E0,2.4315586E0,0E0,1.5108495E0,1.643504E0,2.3993996E-1,0E0,5.992675E-2,0E0,0E0,0E0,0E0,0E0,0E0,0E0,0E0,0E0,0E0,0E0],"parents":[2147483647,0,0,1,1,2,2,3,3,4,4,5,5,8,8,9,9,10,10,11,11,12,12,15,15,16,16,18,18,19,19,23,23,25,25,26,26,27,27,29,29],"right_children":[2,4,6,8,10,12,-1,-1,14,16,18,20,22,-1,-1,24,26,-1,28,30,-1,-1,-1,32,-1,34,36,38,-1,40,-1,-1,-1,-1,-1,-1,-1,-1,-1,-1,-1],"split_conditions":[7E0,3.032E0,6E0,1E0,4E0,3E0,-1.9038325E-2,-5.1502477E-2,1E0,4E0,5E0,1E1,2E1,-1.5598773E-2,1.06072305E-2,3E0,2E0,-4.296167E-2,5E0,2.1E1,-3.247009E-2,7.940913E-3,3.9992284E-2,5.034E0,3.318974E-2,6E0,1.6E1,6.072E0,2.874857E-2,8E0,-1.3219478E-3,-1.1419483E-3,-5.159784E-2,2.5276054E-2,-1.234556E-2,1.07710315E-2,-3.9910704E-2,-2.9220272E-2,1.917094E-4,4.2275067E-2,1.5362776E-2],"split_indices":[13,14,10,8,10,4,0,0,7,20,20,13,11,0,0,10,22,0,13,11,0,0,0,14,0,13,11,14,0,13,0,0,0,0,0,0,0,0,0,0,0],"split_type":[0,0,0,0,0,0,0,0,0,0,0,0,0,0,0,0,0,0,0,0,0,0,0,0,0,0,0,0,0,0,0,0,0,0,0,0,0,0,0,0,0],"sum_hessian":[6.6721695E1,5.0225037E1,1.6496658E1,5.758142E0,4.4466896E1,1.5090339E1,1.4063206E0,3.2942157E0,2.4639266E0,3.7844658E1,6.6222367E0,6.8901367E0,8.200202E0,1.3961296E0,1.0677968E0,1.3853231E1,2.3991428E1,2.6348162E0,3.9874208E0,5.6005974E0,1.2895393E0,2.020095E0,6.1801066E0,1.2084472E1,1.76876E0,1.8963648E1,5.0277796E0,2.1548538E0,1.8325671E0,3.8732643E0,1.7273331E0,9.919669E0,2.164802E0,1.6434776E1,2.528872E0,2.130275E0,2.8975046E0,1.1505826E0,1.0042711E0,1.6135991E0,2.2596653E0],"tree_param":{"num_deleted":"0","num_feature":"24","num_nodes":"41","size_leaf_vector":"1"}},{"base_weights":[-1.8269615E-2,-5.2132476E-2,3.1153664E-1,1.3642494E-1,5.0768998E-2,3.9190614E-1,-2.2135715E-1,-6.615052E-2,5.1243126E-1,5.0942164E-2,-8.725832E-1,-3.8866274E-2,3.031255E-1,6.1487234E-1,-2.3175758E-1,3.5226598E-1,-3.822778E-1,-1.2014459E-2,-1.017301E0,-1.9889457E-2,3.3717282E-2,3.6589317E-2,8.370686E-3,-1.6371792E-2,-1.8712132E-3,-1.5087671E-2,3.2978777E-2,-4.9995232E-2,2.1353988E-2,-6.7765117E-3,-6.4010054E-2],"categories":[],"categories_nodes":[],"categories_segments":[],"categories_sizes":[],"default_left":[0,0,0,0,0,0,0,0,0,0,0,0,0,0,0,0,0,0,0,0,0,0,0,0,0,0,0,0,0,0,0],"id":42,"left_children":[1,-1,3,5,-1,7,9,11,13,15,17,-1,19,21,23,25,27,-1,29,-1,-1,-1,-1,-1,-1,-1,-1,-1,-1,-1,-1],"loss_changes":[2.3434439E1,0E0,6.333816E0,4.0361123E0,0E0,1.445435E0,3.3496022E0,1.8669577E0,1.694365E0,1.9736882E0,2.6346588E-1,0E0,1.5192974E0,8.2787275E-1,4.7046676E-2,1.9735771E0,3.5556378E0,0E0,8.018999E-1,0E0,0E0,0E0,0E0,0E0,0E0,0E0,0E0,0E0,0E0,0E0,0E0],"parents":[2147483647,0,0,2,2,3,3,5,5,6,6,7,7,8,8,9,9,10,10,12,12,13,13,14,14,15,15,16,16,18,18],"right_children":[2,-1,4,6,-1,8,10,12,14,16,18,-1,20,22,24,26,28,-1,30,-1,-1,-1,-1,-1,-1,-1,-1,-1,-1,-1,-1],"split_conditions":[2E0,-5.2132476E-2,3E0,1E0,5.0768998E-2,2E0,2E0,1E0,9E0,5.717E1,4E0,-3.8866274E-2,6E0,2E0,5E0,4.676E1,4.042E0,-1.2014459E-2,3.034E0,-1.9889457E-2,3.3717282E-2,3.6589317E-2,8.370686E-3,-1.6371792E-2,-1.8712132E-3,-1.5087671E-2,3.2978777E-2,-4.9995232E-2,2.1353988E-2,-6.7765117E-3,-6.4010054E-2],"split_indices":[1,0,1,18,0,20,21,22,13,0,20,0,13,22,20,0,14,0,14,0,0,0,0,0,0,0,0,0,0,0,0],"split_type":[0,0,0,0,0,0,0,0,0,0,0,0,0,0,0,0,0,0,0,0,0,0,0,0,0,0,0,0,0,0,0],"sum_hessian":[6.740262E1,1.5889222E1,5.15134E1,4.2206516E1,9.306883E0,2.4567932E1,1.7638584E1,5.211756E0,1.9356176E1,1.308788E1,4.5507035E0,1.4036057E0,3.8081503E0,1.7166847E1,2.1893291E0,7.8291926E0,5.2586875E0,1.3430612E0,3.2076426E0,1.2937675E0,2.5143828E0,1.3106813E1,4.0600348E0,1.0080875E0,1.1812416E0,2.5085502E0,5.3206425E0,2.849093E0,2.4095945E0,1.0847834E0,2.122859E0],"tree_param":{"num_deleted":"0","num_feature":"24","num_nodes":"31","size_leaf_vector":"1"}},{"base_weights":[9.1369905E-2,-5.1581748E-2,4.4385788E-1,3.0446526E-1,4.998609E-2,3.7063947E-1,-3.1823948E-2,4.651647E-1,-2.9742962E-1,-2.0818608E-1,6.238365E-1,4.217821E-1,-4.526245E-2,7.821004E-3,-3.7319873E-2,-5.421171E-3,3.9696034E-2,3.402738E-2,-1.4187268E-3],"categories":[],"categories_nodes":[],"categories_segments":[],"categories_sizes":[],"default_left":[0,0,0,0,0,0,0,0,0,0,0,0,0,0,0,0,0,0,0],"id":43,"left_children":[1,-1,3,5,-1,7,-1,9,11,13,15,17,-1,-1,-1,-1,-1,-1,-1],"loss_changes":[2.5594769E1,0E0,3.4946756E0,2.7663014E0,0E0,2.5759292E0,0E0,3.7844586E0,2.7400484E0,1.5439696E0,3.5649643E0,3.8658988E-1,0E0,0E0,0E0,0E0,0E0,0E0,0E0],"parents":[2147483647,0,0,2,2,3,3,5,5,7,7,8,8,9,9,10,10,11,11],"right_children":[2,-1,4,6,-1,8,-1,10,12,14,16,18,-1,-1,-1,-1,-1,-1,-1],"split_conditions":[2E0,-5.1581748E-2,3E0,4E0,4.998609E-2,3E0,-3.1823948E-2,4.762E1,2E0,4.427E1,3.032E0,4.007E1,-4.526245E-2,7.821004E-3,-3.7319873E-2,-5.421171E-3,3.9696034E-2,3.402738E-2,-1.4187268E-3],"split_indices":[1,0,1,10,0,22,0,0,19,0,14,0,0,0,0,0,0,0,0],"split_type":[0,0,0,0,0,0,0,0,0,0,0,0,0,0,0,0,0,0,0],"sum_hessian":[6.2501694E1,1.4471063E1,4.8030632E1,3.9638355E1,8.392278E0,3.7600132E1,2.038223E0,3.320558E1,4.3945475E0,6.272998E0,2.6932585E1,2.1530228E0,2.2415247E0,4.1625133E0,2.1104844E0,5.144895E0,2.1787691E1,1.0421549E0,1.1108679E0],"tree_param":{"num_deleted":"0","num_feature":"24","num_nodes":"19","size_leaf_vector":"1"}},{"base_weights":[1.9206548E-2,-5.115158E-2,3.5117906E-1,2.1005131E-1,4.882501E-2,3.9514303E-1,-9.271033E-2,9.231059E-3,6.0043985E-1,5.456283E-1,-3.7121126E-1,5.434937E-1,-4.2676553E-1,7.0453477E-1,-2.0414896E-2,5.3013384E-2,-2.8233876E-2,4.072916E-2,-8.6426914E-1,-4.149783E-3,3.800968E-2,-4.6665456E-2,3.416985E-3,4.624067E-2,1.3465225E-2,-2.8682271E-2,1.4625098E-2,4.3391767E-3,-5.6696523E-2],"categories":[],"categories_nodes":[],"categories_segments":[],"categories_sizes":[],"default_left":[0,0,0,0,0,0,0,0,0,0,0,0,0,0,0,0,0,0,0,0,0,0,0,0,0,0,0,0,0],"id":44,"left_children":[1,-1,3,5,-1,7,9,11,13,15,17,19,21,23,-1,-1,-1,25,27,-1,-1,-1,-1,-1,-1,-1,-1,-1,-1],"loss_changes":[2.1144207E1,0E0,3.8813486E0,2.2251234E0,0E0,1.9296792E0,2.980636E0,2.4443023E0,1.9602509E0,3.5424244E0,2.3659065E0,7.022153E-1,1.5158563E0,1.1703925E0,0E0,0E0,0E0,1.28256E0,1.4495165E0,0E0,0E0,0E0,0E0,0E0,0E0,0E0,0E0,0E0,0E0],"parents":[2147483647,0,0,2,2,3,3,5,5,6,6,7,7,8,8,9,9,10,10,11,11,12,12,13,13,17,17,18,18],"right_children":[2,-1,4,6,-1,8,10,12,14,16,18,20,22,24,-1,-1,-1,26,28,-1,-1,-1,-1,-1,-1,-1,-1,-1,-1],"split_conditions":[2E0,-5.115158E-2,3E0,5.958E1,4.882501E-2,5E0,4E0,1E0,4E0,1E0,1E0,2E0,4.034E0,1E0,-2.0414896E-2,5.3013384E-2,-2.8233876E-2,3.038E0,3E0,-4.149783E-3,3.800968E-2,-4.6665456E-2,3.416985E-3,4.624067E-2,1.3465225E-2,-2.8682271E-2,1.4625098E-2,4.3391767E-3,-5.6696523E-2],"split_indices":[1,0,1,0,0,13,13,23,7,7,18,20,14,10,0,0,0,14,20,0,0,0,0,0,0,0,0,0,0],"split_type":[0,0,0,0,0,0,0,0,0,0,0,0,0,0,0,0,0,0,0,0,0,0,0,0,0,0,0,0,0],"sum_hessian":[5.9073048E1,1.376759E1,4.5305458E1,3.80532E1,7.252257E0,2.3426441E1,1.4626759E1,8.497679E0,1.4928762E1,4.151695E0,1.0475063E1,3.707733E0,4.789946E0,1.3805678E1,1.1230847E0,2.8675978E0,1.2840971E0,6.2067976E0,4.2682657E0,1.1114581E0,2.5962749E0,1.9301412E0,2.8598049E0,8.419514E0,5.386164E0,1.4325854E0,4.774212E0,1.0926915E0,3.1755743E0],"tree_param":{"num_deleted":"0","num_feature":"24","num_nodes":"29","size_leaf_vector":"1"}},{"base_weights":[9.840308E-2,-5.086438E-2,4.3137145E-1,3.0813834E-1,4.8746195E-2,-1.363583E-1,4.5782736E-1,2.7545148E-1,-5.2178735E-1,-1.51490485E-2,5.827656E-1,5.899515E-1,-2.8674824E-2,-8.086393E-1,1.4109074E-2,5.161046E-1,-5.272596E-2,2.906137E-1,8.215121E-1,3.624961E-2,7.424775E-3,-5.0683707E-2,-2.091393E-3,-2.2705475E-2,4.3093327E-2,2.5057962E-2,-8.290363E-3,4.5954816E-2,4.3913326E-3],"categories":[],"categories_nodes":[],"categories_segments":[],"categories_sizes":[],"default_left":[0,0,0,0,0,0,0,0,0,0,0,0,0,0,0,0,0,0,0,0,0,0,0,0,0,0,0,0,0],"id":45,"left_children":[1,-1,3,5,-1,7,9,11,13,15,17,19,-1,21,-1,23,-1,25,27,-1,-1,-1,-1,-1,-1,-1,-1,-1,-1],"loss_changes":[2.3216387E1,0E0,2.9096823E0,2.7590492E0,0E0,1.8866047E0,1.8139963E0,1.930452E0,1.615934E0,4.60703E0,1.4485245E0,1.8112123E-1,0E0,6.955669E-1,0E0,2.250021E0,0E0,1.27718E0,8.331566E-1,0E0,0E0,0E0,0E0,0E0,0E0,0E0,0E0,0E0,0E0],"parents":[2147483647,0,0,2,2,3,3,5,5,6,6,7,7,8,8,9,9,10,10,11,11,13,13,15,15,17,17,18,18],"right_children":[2,-1,4,6,-1,8,10,12,14,16,18,20,-1,22,-1,24,-1,26,28,-1,-1,-1,-1,-1,-1,-1,-1,-1,-1],"split_conditions":[2E0,-5.086438E-2,3E0,1.6E1,4.8746195E-2,1E0,4.71E1,1E0,3E0,4.427E1,4.042E0,1E0,-2.8674824E-2,7E0,1.4109074E-2,5E0,-5.272596E-2,3E0,1E0,3.624961E-2,7.424775E-3,-5.0683707E-2,-2.091393E-3,-2.2705475E-2,4.3093327E-2,2.5057962E-2,-8.290363E-3,4.5954816E-2,4.3913326E-3],"split_indices":[1,0,1,11,0,18,0,10,4,0,14,7,0,20,0,13,0,4,6,0,0,0,0,0,0,0,0,0,0],"split_type":[0,0,0,0,0,0,0,0,0,0,0,0,0,0,0,0,0,0,0,0,0,0,0,0,0,0,0,0,0],"sum_hessian":[6.03141E1,1.3390567E1,4.692353E1,3.9528587E1,7.394943E0,9.980594E0,2.9547995E1,4.963115E0,5.0174785E0,6.3578687E0,2.3190125E1,3.8441107E0,1.1190044E0,3.693756E0,1.3237226E0,4.5405173E0,1.8173513E0,1.1425769E1,1.1764356E1,2.4518259E0,1.3922848E0,2.6604533E0,1.0333027E0,1.1106514E0,3.4298658E0,7.751847E0,3.6739223E0,1.0160272E1,1.6040843E0],"tree_param":{"num_deleted":"0","num_feature":"24","num_nodes":"29","size_leaf_vector":"1"}},{"base_weights":[6.9593824E-3,-5.0584912E-2,3.0892226E-1,1.6839804E-1,4.8423953E-2,3.8483128E-1,-8.585287E-2,-3.4942147E-1,4.8774263E-1,2.3347221E-1,-4.534367E-1,2.5203777E-2,-5.1755436E-2,5.965607E-1,-1.5594617E-1,-1.973136E-1,6.7208916E-1,9.392005E-2,-7.248764E-1,8.373438E-3,3.6630984E-2,-3.811114E-2,2.3378538E-2,-3.6141384E-2,2.1637313E-2,4.9716152E-2,5.014307E-3,-1.7420162E-2,2.6088122E-2,-5.39284E-2,1.96579E-2],"categories":[],"categories_nodes":[],"categories_segments":[],"categories_sizes":[],"default_left":[0,0,0,0,0,0,0,0,0,0,0,0,0,0,0,0,0,0,0,0,0,0,0,0,0,0,0,0,0,0,0],"id":46,"left_children":[1,-1,3,5,-1,7,9,11,13,15,17,-1,-1,19,21,23,25,27,29,-1,-1,-1,-1,-1,-1,-1,-1,-1,-1,-1,-1],"loss_changes":[1.9465216E1,0E0,4.3593607E0,2.3131275E0,0E0,1.8754575E0,2.4382317E0,2.4860554E0,1.5084968E0,2.2664862E0,1.490993E0,0E0,0E0,8.985801E-1,